{"learner":{"attributes":{"scikit_learn":"{\"_estimator_type\": \"classifier\"}"},"feature_names":["amount","oldbalanceOrg","velocity_score","is_new_recipient","user_hesitation_ms"],"feature_types":["float","float","float","int","float"],"gradient_booster":{"model":{"gbtree_model_param":{"num_parallel_tree":"1","num_trees":"500"},"iteration_indptr":[0,1,2,3,4,5,6,7,8,9,10,11,12,13,14,15,16,17,18,19,20,21,22,23,24,25,26,27,28,29,30,31,32,33,34,35,36,37,38,39,40,41,42,43,44,45,46,47,48,49,50,51,52,53,54,55,56,57,58,59,60,61,62,63,64,65,66,67,68,69,70,71,72,73,74,75,76,77,78,79,80,81,82,83,84,85,86,87,88,89,90,91,92,93,94,95,96,97,98,99,100,101,102,103,104,105,106,107,108,109,110,111,112,113,114,115,116,117,118,119,120,121,122,123,124,125,126,127,128,129,130,131,132,133,134,135,136,137,138,139,140,141,142,143,144,145,146,147,148,149,150,151,152,153,154,155,156,157,158,159,160,161,162,163,164,165,166,167,168,169,170,171,172,173,174,175,176,177,178,179,180,181,182,183,184,185,186,187,188,189,190,191,192,193,194,195,196,197,198,199,200,201,202,203,204,205,206,207,208,209,210,211,212,213,214,215,216,217,218,219,220,221,222,223,224,225,226,227,228,229,230,231,232,233,234,235,236,237,238,239,240,241,242,243,244,245,246,247,248,249,250,251,252,253,254,255,256,257,258,259,260,261,262,263,264,265,266,267,268,269,270,271,272,273,274,275,276,277,278,279,280,281,282,283,284,285,286,287,288,289,290,291,292,293,294,295,296,297,298,299,300,301,302,303,304,305,306,307,308,309,310,311,312,313,314,315,316,317,318,319,320,321,322,323,324,325,326,327,328,329,330,331,332,333,334,335,336,337,338,339,340,341,342,343,344,345,346,347,348,349,350,351,352,353,354,355,356,357,358,359,360,361,362,363,364,365,366,367,368,369,370,371,372,373,374,375,376,377,378,379,380,381,382,383,384,385,386,387,388,389,390,391,392,393,394,395,396,397,398,399,400,401,402,403,404,405,406,407,408,409,410,411,412,413,414,415,416,417,418,419,420,421,422,423,424,425,426,427,428,429,430,431,432,433,434,435,436,437,438,439,440,441,442,443,444,445,446,447,448,449,450,451,452,453,454,455,456,457,458,459,460,461,462,463,464,465,466,467,468,469,470,471,472,473,474,475,476,477,478,479,480,481,482,483,484,485,486,487,488,489,490,491,492,493,494,495,496,497,498,499,500],"tree_info":[0,0,0,0,0,0,0,0,0,0,0,0,0,0,0,0,0,0,0,0,0,0,0,0,0,0,0,0,0,0,0,0,0,0,0,0,0,0,0,0,0,0,0,0,0,0,0,0,0,0,0,0,0,0,0,0,0,0,0,0,0,0,0,0,0,0,0,0,0,0,0,0,0,0,0,0,0,0,0,0,0,0,0,0,0,0,0,0,0,0,0,0,0,0,0,0,0,0,0,0,0,0,0,0,0,0,0,0,0,0,0,0,0,0,0,0,0,0,0,0,0,0,0,0,0,0,0,0,0,0,0,0,0,0,0,0,0,0,0,0,0,0,0,0,0,0,0,0,0,0,0,0,0,0,0,0,0,0,0,0,0,0,0,0,0,0,0,0,0,0,0,0,0,0,0,0,0,0,0,0,0,0,0,0,0,0,0,0,0,0,0,0,0,0,0,0,0,0,0,0,0,0,0,0,0,0,0,0,0,0,0,0,0,0,0,0,0,0,0,0,0,0,0,0,0,0,0,0,0,0,0,0,0,0,0,0,0,0,0,0,0,0,0,0,0,0,0,0,0,0,0,0,0,0,0,0,0,0,0,0,0,0,0,0,0,0,0,0,0,0,0,0,0,0,0,0,0,0,0,0,0,0,0,0,0,0,0,0,0,0,0,0,0,0,0,0,0,0,0,0,0,0,0,0,0,0,0,0,0,0,0,0,0,0,0,0,0,0,0,0,0,0,0,0,0,0,0,0,0,0,0,0,0,0,0,0,0,0,0,0,0,0,0,0,0,0,0,0,0,0,0,0,0,0,0,0,0,0,0,0,0,0,0,0,0,0,0,0,0,0,0,0,0,0,0,0,0,0,0,0,0,0,0,0,0,0,0,0,0,0,0,0,0,0,0,0,0,0,0,0,0,0,0,0,0,0,0,0,0,0,0,0,0,0,0,0,0,0,0,0,0,0,0,0,0,0,0,0,0,0,0,0,0,0,0,0,0,0,0,0,0,0,0,0,0,0,0,0,0,0,0,0,0,0,0,0,0,0,0,0,0,0,0,0,0,0,0,0,0,0,0,0,0,0,0,0,0,0,0,0,0,0,0,0,0,0,0,0,0,0,0,0,0,0,0,0,0,0,0,0],"trees":[{"base_weights":[-4.2547834E-1,-6.0693897E-2,5.5369706E0,3.9328282E0,5.656537E0,1.4333665E0,5.2629538E0,4.545442E0,2.8312138E-1,-2.3333991E-2,1.3530453E-1,4.0570006E-2,2.7018705E-1,3.0948732E-2,2.6927516E-1],"categories":[],"categories_nodes":[],"categories_segments":[],"categories_sizes":[],"default_left":[0,0,0,0,0,0,0,0,0,0,0,0,0,0,0],"id":0,"left_children":[1,-1,3,5,7,9,11,13,-1,-1,-1,-1,-1,-1,-1],"loss_changes":[3.9173898E6,0E0,1.8285E4,2.247057E4,1.5525E2,5.7971313E3,2.681539E3,1.7602305E3,0E0,0E0,0E0,0E0,0E0,0E0,0E0],"parents":[2147483647,0,0,2,2,3,3,4,4,5,5,6,6,7,7],"right_children":[2,-1,4,6,8,10,12,14,-1,-1,-1,-1,-1,-1,-1],"split_conditions":[2.9920876E-1,-6.0693897E-2,4.879441E3,1E0,5E1,2.749226E4,1.667E3,7.230294E3,2.8312138E-1,-2.3333991E-2,1.3530453E-1,4.0570006E-2,2.7018705E-1,3.0948732E-2,2.6927516E-1],"split_indices":[2,0,4,3,1,1,1,4,0,0,0,0,0,0,0],"split_type":[0,0,0,0,0,0,0,0,0,0,0,0,0,0,0],"sum_hessian":[8.333149E5,7.360073E5,9.73076E4,6.7879907E3,9.051961E4,2.3697942E3,4.4181963E3,5.429115E2,8.9976695E4,9.528533E2,1.416941E3,1.396473E2,4.2785493E3,1.0132413E2,4.415874E2],"tree_param":{"num_deleted":"0","num_feature":"5","num_nodes":"15","size_leaf_vector":"1"}},{"base_weights":[-4.1368398E-1,-6.0064007E-2,4.4278526E0,3.357559E0,2.256532E-1,1.4242647E0,4.262495E0,-6.74543E-3,1.4110082E-1,3.4696676E-2,2.1766423E-1],"categories":[],"categories_nodes":[],"categories_segments":[],"categories_sizes":[],"default_left":[0,0,0,0,0,0,0,0,0,0,0],"id":1,"left_children":[1,-1,3,5,-1,7,9,-1,-1,-1,-1],"loss_changes":[3.135732E6,0E0,1.022675E4,1.483475E4,0E0,6.0114834E3,1.8128047E3,0E0,0E0,0E0,0E0],"parents":[2147483647,0,0,2,2,3,3,5,5,6,6],"right_children":[2,-1,4,6,-1,8,10,-1,-1,-1,-1],"split_conditions":[2.9920876E-1,-6.0064007E-2,5.4048657E3,1E0,2.256532E-1,7.3424E4,1.667E3,-6.74543E-3,1.4110082E-1,3.4696676E-2,2.1766423E-1],"split_indices":[2,0,4,3,0,1,1,0,0,0,0],"split_type":[0,0,0,0,0,0,0,0,0,0,0],"sum_hessian":[8.223097E5,7.072674E5,1.150423E5,8.53268E3,1.0650962E5,2.734615E3,5.798064E3,1.29738E3,1.4372351E3,1.484342E2,5.64963E3],"tree_param":{"num_deleted":"0","num_feature":"5","num_nodes":"11","size_leaf_vector":"1"}},{"base_weights":[-4.028139E-1,-5.9477177E-2,3.738277E0,1.407624E0,3.7616596E0,-7.2611326E-1,3.5177624E0,3.0516071E0,3.7983358E0,1.6563407E-1,-5.0935786E-2,8.709422E-2,1.8671365E-1,7.388407E-2,1.8202965E-1,1.7408015E-1,1.9030468E-1],"categories":[],"categories_nodes":[],"categories_segments":[],"categories_sizes":[],"default_left":[0,0,0,0,0,0,0,0,0,0,0,0,0,0,0,0,0],"id":2,"left_children":[1,-1,3,5,7,9,11,13,15,-1,-1,-1,-1,-1,-1,-1,-1],"loss_changes":[2.6333952E6,0E0,6.92725E3,5.941143E3,3.118875E3,8.2097705E2,1.2933154E2,5.7874453E3,6.3125E1,0E0,0E0,0E0,0E0,0E0,0E0,0E0,0E0],"parents":[2147483647,0,0,2,2,3,3,4,4,5,5,6,6,7,7,8,8],"right_children":[2,-1,4,6,8,10,12,14,16,-1,-1,-1,-1,-1,-1,-1,-1],"split_conditions":[2.9920876E-1,-5.9477177E-2,5E1,5.938398E3,4.0534167E3,1.7629E2,1E0,1E0,5.735469E3,1.6563407E-1,-5.0935786E-2,8.709422E-2,1.8671365E-1,7.388407E-2,1.8202965E-1,1.7408015E-1,1.9030468E-1],"split_indices":[2,0,1,4,4,0,3,3,4,0,0,0,0,0,0,0,0],"split_type":[0,0,0,0,0,0,0,0,0,0,0,0,0,0,0,0,0],"sum_hessian":[8.0827444E5,6.7924294E5,1.2903151E5,1.2929169E3,1.2773859E5,6.4657733E2,6.463395E2,6.3427173E3,1.21395875E5,3.2065636E1,6.145117E2,8.749057E1,5.5884894E2,1.7438397E3,4.5988774E3,3.078898E3,1.1831698E5],"tree_param":{"num_deleted":"0","num_feature":"5","num_nodes":"17","size_leaf_vector":"1"}},{"base_weights":[-3.9286965E-1,-5.892978E-2,3.264365E0,1.3017321E0,3.2829874E0,-7.0585614E-1,3.0943847E0,2.7016122E0,3.313282E0,1.4880612E-1,-5.009355E-2,7.644557E-2,1.6440752E-1,6.781182E-2,1.5916854E-1,1.5557887E-1,1.6609113E-1],"categories":[],"categories_nodes":[],"categories_segments":[],"categories_sizes":[],"default_left":[0,0,0,0,0,0,0,0,0,0,0,0,0,0,0,0,0],"id":3,"left_children":[1,-1,3,5,7,9,11,13,15,-1,-1,-1,-1,-1,-1,-1,-1],"loss_changes":[2.2760348E6,0E0,5.032375E3,4.8815146E3,2.2795E3,7.377163E2,1.1711377E2,4.4243555E3,3.975E1,0E0,0E0,0E0,0E0,0E0,0E0,0E0,0E0],"parents":[2147483647,0,0,2,2,3,3,4,4,5,5,6,6,7,7,8,8],"right_children":[2,-1,4,6,8,10,12,14,16,-1,-1,-1,-1,-1,-1,-1,-1],"split_conditions":[2.9920876E-1,-5.892978E-2,5E1,5.938398E3,4.1231064E3,1.7629E2,8.180072E3,1E0,6.6431396E3,1.4880612E-1,-5.009355E-2,7.644557E-2,1.6440752E-1,6.781182E-2,1.5916854E-1,1.5557887E-1,1.6609113E-1],"split_indices":[2,0,1,4,4,0,4,3,4,0,0,0,0,0,0,0,0],"split_type":[0,0,0,0,0,0,0,0,0,0,0,0,0,0,0,0,0],"sum_hessian":[7.9202294E5,6.519653E5,1.4005767E5,1.3289657E3,1.3872872E5,6.2987476E2,6.990909E2,6.946114E3,1.317826E5,3.5508026E1,5.9436676E2,9.4529465E1,6.045614E2,1.8492996E3,5.0968145E3,5.599609E3,1.2618299E5],"tree_param":{"num_deleted":"0","num_feature":"5","num_nodes":"17","size_leaf_vector":"1"}},{"base_weights":[-3.8379735E-1,-5.841859E-2,2.9172606E0,2.2898061E0,2.9601269E0,3.1658992E-1,2.6686327E0,2.792378E0,1.4835502E-1,6.7019396E-2,-5.2753765E-2,-6.340839E-2,1.4090107E-1,7.7867664E-2,1.4501254E-1],"categories":[],"categories_nodes":[],"categories_segments":[],"categories_sizes":[],"default_left":[0,0,0,0,0,0,0,0,0,0,0,0,0,0,0],"id":4,"left_children":[1,-1,3,5,7,9,11,13,-1,-1,-1,-1,-1,-1,-1],"loss_changes":[2.0049459E6,0E0,3.8705E3,7.1337188E3,9.75E0,2.216408E3,4.7857266E3,6.873125E2,0E0,0E0,0E0,0E0,0E0,0E0,0E0],"parents":[2147483647,0,0,2,2,3,3,4,4,5,5,6,6,7,7],"right_children":[2,-1,4,6,8,10,12,14,-1,-1,-1,-1,-1,-1,-1],"split_conditions":[2.9920876E-1,-5.841859E-2,4.9497476E3,3.077119E4,7.230294E3,2.843173E4,3.01079E4,3.50852E4,1.4835502E-1,6.7019396E-2,-5.2753765E-2,-6.340839E-2,1.4090107E-1,7.7867664E-2,1.4501254E-1],"split_indices":[2,0,4,1,4,0,0,1,0,0,0,0,0,0,0],"split_type":[0,0,0,0,0,0,0,0,0,0,0,0,0,0,0],"sum_hessian":[7.7410125E5,6.254577E5,1.4864358E5,9.5652705E3,1.3907831E5,1.5471702E3,8.0181E3,5.8198096E3,1.332585E5,8.8820764E2,6.589626E2,2.878063E2,7.730294E3,4.898207E2,5.329989E3],"tree_param":{"num_deleted":"0","num_feature":"5","num_nodes":"15","size_leaf_vector":"1"}},{"base_weights":[-3.7551966E-1,-5.7940703E-2,2.6512983E0,1.1369004E0,2.6654184E0,-7.002529E-1,2.5306141E0,2.2589414E0,1.345767E-1,1.2920654E-1,-4.9577583E-2,6.387139E-2,1.3361505E-1,6.197938E-2,1.3091014E-1],"categories":[],"categories_nodes":[],"categories_segments":[],"categories_sizes":[],"default_left":[0,0,0,0,0,0,0,0,0,0,0,0,0,0,0],"id":5,"left_children":[1,-1,3,5,7,9,11,13,-1,-1,-1,-1,-1,-1,-1],"loss_changes":[1.7899254E6,0E0,3.2545E3,3.7821743E3,1.516125E3,6.4410645E2,7.7629395E1,3.3697695E3,0E0,0E0,0E0,0E0,0E0,0E0,0E0],"parents":[2147483647,0,0,2,2,3,3,4,4,5,5,6,6,7,7],"right_children":[2,-1,4,6,8,10,12,14,-1,-1,-1,-1,-1,-1,-1],"split_conditions":[2.9920876E-1,-5.7940703E-2,1.19E2,5.938398E3,4.9497476E3,1.7629E2,8.180072E3,1E0,1.345767E-1,1.2920654E-1,-4.9577583E-2,6.387139E-2,1.3361505E-1,6.197938E-2,1.3091014E-1],"split_indices":[2,0,1,4,4,0,4,3,0,0,0,0,0,0,0],"split_type":[0,0,0,0,0,0,0,0,0,0,0,0,0,0,0],"sum_hessian":[7.549281E5,5.997364E5,1.5519173E5,1.4481876E3,1.5374355E5,6.263832E2,8.2180444E2,9.372225E3,1.4437133E5,4.001254E1,5.8637067E2,1.0232156E2,7.1948285E2,2.4633862E3,6.9088384E3],"tree_param":{"num_deleted":"0","num_feature":"5","num_nodes":"15","size_leaf_vector":"1"}},{"base_weights":[-3.679447E-1,-5.749352E-2,2.4412043E0,1.9506924E0,1.2390591E-1,1.5871024E-1,2.234261E0,5.454815E-2,-5.284679E-2,-6.447441E-2,1.1756785E-1],"categories":[],"categories_nodes":[],"categories_segments":[],"categories_sizes":[],"default_left":[0,0,0,0,0,0,0,0,0,0,0],"id":6,"left_children":[1,-1,3,5,-1,7,9,-1,-1,-1,-1],"loss_changes":[1.6140896E6,0E0,2.8024375E3,5.713824E3,0E0,1.784769E3,4.0671719E3,0E0,0E0,0E0,0E0],"parents":[2147483647,0,0,2,2,3,3,5,5,6,6],"right_children":[2,-1,4,6,-1,8,10,-1,-1,-1,-1],"split_conditions":[2.9920876E-1,-5.749352E-2,5.4048657E3,2.5841E4,1.2390591E-1,2.474889E4,2.613734E4,5.454815E-2,-5.284679E-2,-6.447441E-2,1.1756785E-1],"split_indices":[2,0,4,1,0,0,0,0,0,0,0],"split_type":[0,0,0,0,0,0,0,0,0,0,0],"sum_hessian":[7.347996E5,5.748116E5,1.5998798E5,1.1263377E4,1.4872461E5,1.5444453E3,9.718932E3,8.773081E2,6.6713715E2,3.063744E2,9.412558E3],"tree_param":{"num_deleted":"0","num_feature":"5","num_nodes":"11","size_leaf_vector":"1"}},{"base_weights":[-3.6100894E-1,-5.7074662E-2,2.2706459E0,1.8116771E0,1.15261935E-1,1.498974E-1,2.068003E0,5.0602354E-2,-5.1974155E-2,-6.3285254E-2,1.0863568E-1],"categories":[],"categories_nodes":[],"categories_segments":[],"categories_sizes":[],"default_left":[0,0,0,0,0,0,0,0,0,0,0],"id":7,"left_children":[1,-1,3,5,-1,7,9,-1,-1,-1,-1],"loss_changes":[1.4665934E6,0E0,2.509875E3,4.894449E3,0E0,1.6145306E3,3.530664E3,0E0,0E0,0E0,0E0],"parents":[2147483647,0,0,2,2,3,3,5,5,6,6],"right_children":[2,-1,4,6,-1,8,10,-1,-1,-1,-1],"split_conditions":[2.9920876E-1,-5.7074662E-2,5.4048657E3,2.5841E4,1.15261935E-1,2.474889E4,2.613734E4,5.0602354E-2,-5.1974155E-2,-6.3285254E-2,1.0863568E-1],"split_indices":[2,0,4,1,0,0,0,0,0,0,0],"split_type":[0,0,0,0,0,0,0,0,0,0,0],"sum_hessian":[7.139991E5,5.5068875E5,1.6331038E5,1.1512431E4,1.5179795E5,1.5442456E3,9.968186E3,8.9901465E2,6.45231E2,2.970435E2,9.671142E3],"tree_param":{"num_deleted":"0","num_feature":"5","num_nodes":"11","size_leaf_vector":"1"}},{"base_weights":[-3.5463768E-1,-5.6681998E-2,2.1295881E0,1.7060966E0,1.0817542E-1,7.1421164E-1,2.0993912E0,6.710199E-3,1.1694103E-1,2.747134E-2,1.0628992E-1],"categories":[],"categories_nodes":[],"categories_segments":[],"categories_sizes":[],"default_left":[0,0,0,0,0,0,0,0,0,0,0],"id":8,"left_children":[1,-1,3,5,-1,7,9,-1,-1,-1,-1],"loss_changes":[1.3406436E6,0E0,2.300875E3,4.7795586E3,0E0,3.3107788E3,3.3048047E2,0E0,0E0,0E0,0E0],"parents":[2147483647,0,0,2,2,3,3,5,5,6,6],"right_children":[2,-1,4,6,-1,8,10,-1,-1,-1,-1],"split_conditions":[2.9920876E-1,-5.6681998E-2,5.6145415E3,1E0,1.0817542E-1,5.3813194E5,1.667E3,6.710199E-3,1.1694103E-1,2.747134E-2,1.0628992E-1],"split_indices":[2,0,4,3,0,0,1,0,0,0,0],"split_type":[0,0,0,0,0,0,0,0,0,0,0],"sum_hessian":[6.927301E5,5.273684E5,1.6536173E5,1.2330759E4,1.5303098E5,3.516681E3,8.814078E3,2.6057197E3,9.1096106E2,1.5630383E2,8.657774E3],"tree_param":{"num_deleted":"0","num_feature":"5","num_nodes":"11","size_leaf_vector":"1"}},{"base_weights":[-3.487629E-1,-5.631358E-2,2.0110629E0,1.6051099E0,1.02185845E-1,6.7174304E-1,1.9754878E0,4.120423E-3,1.0229548E-1,2.5839731E-2,1.00024216E-1],"categories":[],"categories_nodes":[],"categories_segments":[],"categories_sizes":[],"default_left":[0,0,0,0,0,0,0,0,0,0,0],"id":9,"left_children":[1,-1,3,5,-1,7,9,-1,-1,-1,-1],"loss_changes":[1.2315146E6,0E0,2.1375E3,4.2760625E3,0E0,2.8761724E3,2.968672E2,0E0,0E0,0E0,0E0],"parents":[2147483647,0,0,2,2,3,3,5,5,6,6],"right_children":[2,-1,4,6,-1,8,10,-1,-1,-1,-1],"split_conditions":[2.9920876E-1,-5.631358E-2,5.6145415E3,1E0,1.02185845E-1,4.3451334E5,1.667E3,4.120423E-3,1.0229548E-1,2.5839731E-2,1.00024216E-1],"split_indices":[2,0,4,3,0,0,1,0,0,0,0],"split_type":[0,0,0,0,0,0,0,0,0,0,0],"sum_hessian":[6.711726E5,5.0484706E5,1.663256E5,1.2450211E4,1.5387539E5,3.5527778E3,8.897433E3,2.500104E3,1.0526738E3,1.5874693E2,8.738687E3],"tree_param":{"num_deleted":"0","num_feature":"5","num_nodes":"11","size_leaf_vector":"1"}},{"base_weights":[-3.4334213E-1,-5.596766E-2,1.9100677E0,1.5193869E0,9.710142E-2,-6.802896E-1,1.6593516E0,1.1925918E-1,-5.1840376E-2,4.8997603E-2,9.4677165E-2],"categories":[],"categories_nodes":[],"categories_segments":[],"categories_sizes":[],"default_left":[0,0,0,0,0,0,0,0,0,0,0],"id":10,"left_children":[1,-1,3,5,-1,7,9,-1,-1,-1,-1],"loss_changes":[1.135783E6,0E0,2.0159375E3,3.9203105E3,0E0,8.675231E2,1.8530312E3,0E0,0E0,0E0,0E0],"parents":[2147483647,0,0,2,2,3,3,5,5,6,6],"right_children":[2,-1,4,6,-1,8,10,-1,-1,-1,-1],"split_conditions":[2.9920876E-1,-5.596766E-2,5.673833E3,1.667E3,9.710142E-2,1.7629E2,1E0,1.1925918E-1,-5.1840376E-2,4.8997603E-2,9.4677165E-2],"split_indices":[2,0,4,1,0,0,3,0,0,0,0],"split_type":[0,0,0,0,0,0,0,0,0,0,0],"sum_hessian":[6.4948106E5,4.831184E5,1.6636266E5,1.2647474E4,1.5371519E5,7.510108E2,1.1896463E4,6.788996E1,6.8312085E2,3.074968E3,8.821495E3],"tree_param":{"num_deleted":"0","num_feature":"5","num_nodes":"11","size_leaf_vector":"1"}},{"base_weights":[-3.3833107E-1,-5.564263E-2,1.8229927E0,1.3605722E0,1.8489127E0,4.2558756E-1,1.7525759E0,1.6734893E0,9.283925E-2,-2.4736186E-3,1.0096624E-1,2.5428161E-2,8.8599406E-2,2.7878711E-2,8.933782E-2],"categories":[],"categories_nodes":[],"categories_segments":[],"categories_sizes":[],"default_left":[0,0,0,0,0,0,0,0,0,0,0,0,0,0,0],"id":11,"left_children":[1,-1,3,5,7,9,11,13,-1,-1,-1,-1,-1,-1,-1],"loss_changes":[1.0509598E6,0E0,1.9314375E3,3.2245938E3,1.5225E2,2.0104152E3,1.255957E2,8.470957E2,0E0,0E0,0E0,0E0,0E0,0E0,0E0],"parents":[2147483647,0,0,2,2,3,3,4,4,5,5,6,6,7,7],"right_children":[2,-1,4,6,8,10,12,14,-1,-1,-1,-1,-1,-1,-1],"split_conditions":[2.9920876E-1,-5.564263E-2,4.1231064E3,1E0,6.6431396E3,5.674404E5,1.58E2,3.1698E4,9.283925E-2,-2.4736186E-3,1.0096624E-1,2.5428161E-2,8.8599406E-2,2.7878711E-2,8.933782E-2],"split_indices":[2,0,4,3,4,0,1,1,0,0,0,0,0,0,0],"split_type":[0,0,0,0,0,0,0,0,0,0,0,0,0,0,0],"sum_hessian":[6.2778556E5,4.6217306E5,1.656125E5,8.843162E3,1.5676934E5,2.6253552E3,6.217807E3,6.8978823E3,1.4987145E5,2.0312723E3,5.94083E2,1.0576097E2,6.112046E3,6.478819E2,6.2500005E3],"tree_param":{"num_deleted":"0","num_feature":"5","num_nodes":"15","size_leaf_vector":"1"}},{"base_weights":[-3.3368075E-1,-5.533701E-2,1.7471722E0,1.369318E0,8.890798E-2,2.414669E-2,1.5698568E0,3.8457498E-2,-5.334298E-2,-6.61907E-2,8.2835265E-2],"categories":[],"categories_nodes":[],"categories_segments":[],"categories_sizes":[],"default_left":[0,0,0,0,0,0,0,0,0,0,0],"id":12,"left_children":[1,-1,3,5,-1,7,9,-1,-1,-1,-1],"loss_changes":[9.75193E5,0E0,1.8704062E3,3.369832E3,0E0,1.3464781E3,2.7726836E3,0E0,0E0,0E0,0E0],"parents":[2147483647,0,0,2,2,3,3,5,5,6,6],"right_children":[2,-1,4,6,-1,8,10,-1,-1,-1,-1],"split_conditions":[2.9920876E-1,-5.533701E-2,5.6145415E3,2.5841E4,8.890798E-2,2.474889E4,2.613734E4,3.8457498E-2,-5.334298E-2,-6.61907E-2,8.2835265E-2],"split_indices":[2,0,4,1,0,0,0,0,0,0,0],"split_type":[0,0,0,0,0,0,0,0,0,0,0],"sum_hessian":[6.061973E5,4.4199922E5,1.6419806E5,1.2508648E4,1.5168942E5,1.6282734E3,1.0880374E4,9.7291675E2,6.5535675E2,3.0913724E2,1.0571237E4],"tree_param":{"num_deleted":"0","num_feature":"5","num_nodes":"11","size_leaf_vector":"1"}},{"base_weights":[-3.2937446E-1,-5.504946E-2,1.6805239E0,1.308668E0,8.558159E-2,5.256704E-1,1.6367792E0,3.1428076E-3,8.7575674E-2,4.0023632E-2,8.348622E-2],"categories":[],"categories_nodes":[],"categories_segments":[],"categories_sizes":[],"default_left":[0,0,0,0,0,0,0,0,0,0,0],"id":13,"left_children":[1,-1,3,5,-1,7,9,-1,-1,-1,-1],"loss_changes":[9.07006E5,0E0,1.828E3,3.2135137E3,0E0,2.1154153E3,2.119375E2,0E0,0E0,0E0,0E0],"parents":[2147483647,0,0,2,2,3,3,5,5,6,6],"right_children":[2,-1,4,6,-1,8,10,-1,-1,-1,-1],"split_conditions":[2.9920876E-1,-5.504946E-2,5.673833E3,1E0,8.558159E-2,5.3813194E5,1.3699E4,3.1428076E-3,8.7575674E-2,4.0023632E-2,8.348622E-2],"split_indices":[2,0,4,3,0,0,1,0,0,0,0],"split_type":[0,0,0,0,0,0,0,0,0,0,0],"sum_hessian":[5.848069E5,4.225833E5,1.6222358E5,1.258563E4,1.4963795E5,3.7325715E3,8.853059E3,2.723985E3,1.0085864E3,3.5567084E2,8.497388E3],"tree_param":{"num_deleted":"0","num_feature":"5","num_nodes":"11","size_leaf_vector":"1"}},{"base_weights":[-3.2535875E-1,-5.4778762E-2,1.621619E0,1.2503357E0,1.6526024E0,4.7838008E-1,1.5729364E0,1.5355273E0,8.28113E-2,-0E0,7.849703E-2,3.7995238E-2,8.029028E-2,2.3728374E-3,7.8418665E-2],"categories":[],"categories_nodes":[],"categories_segments":[],"categories_sizes":[],"default_left":[0,0,0,0,0,0,0,0,0,0,0,0,0,0,0],"id":14,"left_children":[1,-1,3,5,7,9,11,13,-1,-1,-1,-1,-1,-1,-1],"loss_changes":[8.453467E5,0E0,1.7926562E3,3.0618613E3,8.46875E0,1.9261173E3,2.0292969E2,2.1921777E2,0E0,0E0,0E0,0E0,0E0,0E0,0E0],"parents":[2147483647,0,0,2,2,3,3,4,4,5,5,6,6,7,7],"right_children":[2,-1,4,6,8,10,12,14,-1,-1,-1,-1,-1,-1,-1],"split_conditions":[2.9920876E-1,-5.4778762E-2,5.6145415E3,1E0,7.230294E3,4.3451334E5,1.3699E4,1.19E2,8.28113E-2,-0E0,7.849703E-2,3.7995238E-2,8.029028E-2,2.3728374E-3,7.8418665E-2],"split_indices":[2,0,4,3,4,0,1,1,0,0,0,0,0,0,0],"split_type":[0,0,0,0,0,0,0,0,0,0,0,0,0,0,0],"sum_hessian":[5.6368594E5,4.0390994E5,1.59776E5,1.2366488E4,1.4740952E5,3.6603445E3,8.706144E3,4.658224E3,1.4275128E5,2.5526133E3,1.1077313E3,3.5826248E2,8.347881E3,1.04679375E2,4.553545E3],"tree_param":{"num_deleted":"0","num_feature":"5","num_nodes":"15","size_leaf_vector":"1"}},{"base_weights":[-3.216162E-1,-5.4523773E-2,1.5692077E0,1.1994673E0,1.6003579E0,4.541769E-1,1.5155323E0,1.4838014E0,8.019876E-2,1.487148E-3,7.882825E-2,3.586557E-2,7.7430904E-2,2.2685272E-3,7.58031E-2],"categories":[],"categories_nodes":[],"categories_segments":[],"categories_sizes":[],"default_left":[0,0,0,0,0,0,0,0,0,0,0,0,0,0,0],"id":15,"left_children":[1,-1,3,5,7,9,11,13,-1,-1,-1,-1,-1,-1,-1],"loss_changes":[7.8929506E5,0E0,1.764875E3,2.8695996E3,9.84375E0,1.7440375E3,1.9921875E2,2.044961E2,0E0,0E0,0E0,0E0,0E0,0E0,0E0],"parents":[2147483647,0,0,2,2,3,3,4,4,5,5,6,6,7,7],"right_children":[2,-1,4,6,8,10,12,14,-1,-1,-1,-1,-1,-1,-1],"split_conditions":[2.9920876E-1,-5.4523773E-2,5.6145415E3,1E0,7.230294E3,5.3813194E5,1.3699E4,1.19E2,8.019876E-2,1.487148E-3,7.882825E-2,3.586557E-2,7.7430904E-2,2.2685272E-3,7.58031E-2],"split_indices":[2,0,4,3,4,0,1,1,0,0,0,0,0,0,0],"split_type":[0,0,0,0,0,0,0,0,0,0,0,0,0,0,0],"sum_hessian":[5.4289606E5,3.8596247E5,1.569336E5,1.2252657E4,1.4468094E5,3.6643604E3,8.588297E3,4.5822686E3,1.4009867E5,2.6732983E3,9.910622E2,3.6136688E2,8.22693E3,1.0470704E2,4.4775615E3],"tree_param":{"num_deleted":"0","num_feature":"5","num_nodes":"15","size_leaf_vector":"1"}},{"base_weights":[-3.1812122E-1,-5.428346E-2,1.5222588E0,1.1528946E0,1.5536954E0,-6.919278E-1,1.2747579E0,1.4369719E0,7.7866465E-2,9.9597335E-2,-5.1700067E-2,3.5175964E-2,7.428716E-2,3.4134366E-2,7.522834E-2],"categories":[],"categories_nodes":[],"categories_segments":[],"categories_sizes":[],"default_left":[0,0,0,0,0,0,0,0,0,0,0,0,0,0,0],"id":16,"left_children":[1,-1,3,5,7,9,11,13,-1,-1,-1,-1,-1,-1,-1],"loss_changes":[7.381079E5,0E0,1.7452812E3,2.7437783E3,1.153125E1,7.229027E2,1.3459824E3,2.0375E2,0E0,0E0,0E0,0E0,0E0,0E0,0E0],"parents":[2147483647,0,0,2,2,3,3,4,4,5,5,6,6,7,7],"right_children":[2,-1,4,6,8,10,12,14,-1,-1,-1,-1,-1,-1,-1],"split_conditions":[2.9920876E-1,-5.428346E-2,5.6145415E3,1.667E3,7.230294E3,1.7629E2,1E0,3.50852E4,7.7866465E-2,9.9597335E-2,-5.1700067E-2,3.5175964E-2,7.428716E-2,3.4134366E-2,7.522834E-2],"split_indices":[2,0,4,1,4,0,3,1,0,0,0,0,0,0,0],"split_type":[0,0,0,0,0,0,0,0,0,0,0,0,0,0,0],"sum_hessian":[5.2249372E5,3.6872312E5,1.5377061E5,1.2117735E4,1.4165288E5,7.439704E2,1.1373765E4,4.497904E3,1.3715497E5,7.427243E1,6.69698E2,3.0917166E3,8.282048E3,3.8970392E2,4.1081997E3],"tree_param":{"num_deleted":"0","num_feature":"5","num_nodes":"15","size_leaf_vector":"1"}},{"base_weights":[-3.1485468E-1,-5.405686E-2,1.4799381E0,1.111686E0,1.5119845E0,-3.9154748E-3,1.3038895E0,1.3966564E0,7.577385E-2,3.208172E-2,-5.50266E-2,-6.868723E-2,6.9415756E-2,3.4131695E-2,7.312896E-2],"categories":[],"categories_nodes":[],"categories_segments":[],"categories_sizes":[],"default_left":[0,0,0,0,0,0,0,0,0,0,0,0,0,0,0],"id":17,"left_children":[1,-1,3,5,7,9,11,13,-1,-1,-1,-1,-1,-1,-1],"loss_changes":[6.9117344E5,0E0,1.7361875E3,2.6025527E3,9.40625E0,1.2803685E3,2.364205E3,1.7658984E2,0E0,0E0,0E0,0E0,0E0,0E0,0E0],"parents":[2147483647,0,0,2,2,3,3,4,4,5,5,6,6,7,7],"right_children":[2,-1,4,6,8,10,12,14,-1,-1,-1,-1,-1,-1,-1],"split_conditions":[2.9920876E-1,-5.405686E-2,5.673833E3,3.077119E4,7.230294E3,2.843173E4,3.01079E4,3.50852E4,7.577385E-2,3.208172E-2,-5.50266E-2,-6.868723E-2,6.9415756E-2,3.4131695E-2,7.312896E-2],"split_indices":[2,0,4,1,4,0,0,1,0,0,0,0,0,0,0],"split_type":[0,0,0,0,0,0,0,0,0,0,0,0,0,0,0],"sum_hessian":[5.0252425E5,3.5217344E5,1.5035084E5,1.2091828E4,1.3825902E5,1.7754297E3,1.0316398E4,4.282649E3,1.3397636E5,1.1186017E3,6.56828E2,3.065204E2,1.0009878E4,3.8278668E2,3.8998623E3],"tree_param":{"num_deleted":"0","num_feature":"5","num_nodes":"15","size_leaf_vector":"1"}},{"base_weights":[-3.118017E-1,-5.384309E-2,1.4415727E0,1.0709131E0,1.4742093E0,3.8904172E-1,1.3807158E0,1.3575531E0,7.388782E-2,1.2204163E-4,7.127464E-2,3.2053676E-2,7.063561E-2,3.266321E-2,7.1190625E-2],"categories":[],"categories_nodes":[],"categories_segments":[],"categories_sizes":[],"default_left":[0,0,0,0,0,0,0,0,0,0,0,0,0,0,0],"id":18,"left_children":[1,-1,3,5,7,9,11,13,-1,-1,-1,-1,-1,-1,-1],"loss_changes":[6.4798594E5,0E0,1.7387812E3,2.505874E3,1.153125E1,1.4981227E3,1.702207E2,1.7185449E2,0E0,0E0,0E0,0E0,0E0,0E0,0E0],"parents":[2147483647,0,0,2,2,3,3,4,4,5,5,6,6,7,7],"right_children":[2,-1,4,6,8,10,12,14,-1,-1,-1,-1,-1,-1,-1],"split_conditions":[2.9920876E-1,-5.384309E-2,5.673833E3,1E0,7.230294E3,5.3813194E5,1.3699E4,3.50852E4,7.388782E-2,1.2204163E-4,7.127464E-2,3.2053676E-2,7.063561E-2,3.266321E-2,7.1190625E-2],"split_indices":[2,0,4,3,4,0,1,1,0,0,0,0,0,0,0],"split_type":[0,0,0,0,0,0,0,0,0,0,0,0,0,0,0],"sum_hessian":[4.8302272E5,3.362942E5,1.4672856E5,1.1927404E4,1.3480116E5,3.7417786E3,8.185626E3,4.1891924E3,1.3061196E5,2.739713E3,1.0020657E3,3.589834E2,7.8266426E3,3.8072375E2,3.8084688E3],"tree_param":{"num_deleted":"0","num_feature":"5","num_nodes":"15","size_leaf_vector":"1"}},{"base_weights":[-3.0892658E-1,-5.364133E-2,1.4067528E0,1.0314468E0,1.439825E0,3.536523E-1,1.3408512E0,1.319381E0,7.2181076E-2,-4.893162E-3,5.9866756E-2,4.0236965E-2,6.9364645E-2,-0E0,6.765972E-2],"categories":[],"categories_nodes":[],"categories_segments":[],"categories_sizes":[],"default_left":[0,0,0,0,0,0,0,0,0,0,0,0,0,0,0],"id":19,"left_children":[1,-1,3,5,7,9,11,13,-1,-1,-1,-1,-1,-1,-1],"loss_changes":[6.081764E5,0E0,1.7398438E3,2.4260205E3,1.765625E1,1.4069775E3,1.710586E2,1.8880225E2,0E0,0E0,0E0,0E0,0E0,0E0,0E0],"parents":[2147483647,0,0,2,2,3,3,4,4,5,5,6,6,7,7],"right_children":[2,-1,4,6,8,10,12,14,-1,-1,-1,-1,-1,-1,-1],"split_conditions":[2.9920876E-1,-5.364133E-2,5.6145415E3,1E0,7.230294E3,3.3707344E5,3.1054E4,1.19E2,7.2181076E-2,-4.893162E-3,5.9866756E-2,4.0236965E-2,6.9364645E-2,-0E0,6.765972E-2],"split_indices":[2,0,4,3,4,0,1,1,0,0,0,0,0,0,0],"split_type":[0,0,0,0,0,0,0,0,0,0,0,0,0,0,0],"sum_hessian":[4.6401056E5,3.2106572E5,1.4294483E5,1.1627633E4,1.3131719E5,3.659431E3,7.9682017E3,4.2126875E3,1.271045E5,2.388504E3,1.2709271E3,6.657316E2,7.30247E3,1.0553499E2,4.1071523E3],"tree_param":{"num_deleted":"0","num_feature":"5","num_nodes":"15","size_leaf_vector":"1"}},{"base_weights":[-3.0622822E-1,-5.345083E-2,1.3749541E0,1.0009729E0,1.4091402E0,-1.0281708E-1,1.1792531E0,1.2913947E0,7.063093E-2,2.658478E-2,-5.4074217E-2,-6.8592645E-2,6.302572E-2,3.117773E-2,6.787297E-2],"categories":[],"categories_nodes":[],"categories_segments":[],"categories_sizes":[],"default_left":[0,0,0,0,0,0,0,0,0,0,0,0,0,0,0],"id":20,"left_children":[1,-1,3,5,7,9,11,13,-1,-1,-1,-1,-1,-1,-1],"loss_changes":[5.7135694E5,0E0,1.744625E3,2.3117021E3,1.128125E1,1.0287598E3,2.1165703E3,1.4817285E2,0E0,0E0,0E0,0E0,0E0,0E0,0E0],"parents":[2147483647,0,0,2,2,3,3,4,4,5,5,6,6,7,7],"right_children":[2,-1,4,6,8,10,12,14,-1,-1,-1,-1,-1,-1,-1],"split_conditions":[2.9920876E-1,-5.345083E-2,5.735469E3,2.5841E4,7.230294E3,2.474889E4,2.613734E4,3.6153E4,7.063093E-2,2.658478E-2,-5.4074217E-2,-6.8592645E-2,6.302572E-2,3.117773E-2,6.787297E-2],"split_indices":[2,0,4,1,4,0,0,1,0,0,0,0,0,0,0],"split_type":[0,0,0,0,0,0,0,0,0,0,0,0,0,0,0],"sum_hessian":[4.4551094E5,3.064682E5,1.3904273E5,1.1695821E4,1.27346914E5,1.6233632E3,1.0072458E4,3.8556252E3,1.2349129E5,9.8590173E2,6.374614E2,3.016833E2,9.770775E3,3.679838E2,3.4876416E3],"tree_param":{"num_deleted":"0","num_feature":"5","num_nodes":"15","size_leaf_vector":"1"}},{"base_weights":[-3.036974E-1,-5.3270895E-2,1.3457421E0,9.673957E-1,1.3807938E0,3.2729995E-1,1.2763212E0,1.2604518E0,6.921836E-2,-2.9340113E-2,3.3897936E-2,3.7690055E-2,6.613419E-2,4.3087106E-2,6.887653E-2],"categories":[],"categories_nodes":[],"categories_segments":[],"categories_sizes":[],"default_left":[0,0,0,0,0,0,0,0,0,0,0,0,0,0,0],"id":21,"left_children":[1,-1,3,5,7,9,11,13,-1,-1,-1,-1,-1,-1,-1],"loss_changes":[5.3720856E5,0E0,1.7595469E3,2.262753E3,1.375E1,1.216092E3,1.625625E2,1.4704688E2,0E0,0E0,0E0,0E0,0E0,0E0,0E0],"parents":[2147483647,0,0,2,2,3,3,4,4,5,5,6,6,7,7],"right_children":[2,-1,4,6,8,10,12,14,-1,-1,-1,-1,-1,-1,-1],"split_conditions":[2.9920876E-1,-5.3270895E-2,5.735469E3,1E0,7.230294E3,2.749226E4,3.1054E4,1E0,6.921836E-2,-2.9340113E-2,3.3897936E-2,3.7690055E-2,6.613419E-2,4.3087106E-2,6.887653E-2],"split_indices":[2,0,4,3,4,1,1,3,0,0,0,0,0,0,0],"split_type":[0,0,0,0,0,0,0,0,0,0,0,0,0,0,0],"sum_hessian":[4.2754262E5,2.924814E5,1.3506122E5,1.1500202E4,1.23561016E5,3.7588708E3,7.7413315E3,3.7563594E3,1.1980466E5,1.0354042E3,2.7234668E3,6.607879E2,7.0805435E3,8.908149E2,2.8655444E3],"tree_param":{"num_deleted":"0","num_feature":"5","num_nodes":"15","size_leaf_vector":"1"}},{"base_weights":[-3.0130282E-1,-5.310086E-2,1.3189049E0,9.316449E-1,1.3544215E0,2.896023E-1,1.2431033E0,1.225716E0,6.792724E-2,-2.7507439E-3,6.285398E-2,2.6563436E-2,6.3880056E-2,2.4050394E-2,6.500459E-2],"categories":[],"categories_nodes":[],"categories_segments":[],"categories_sizes":[],"default_left":[0,0,0,0,0,0,0,0,0,0,0,0,0,0,0],"id":22,"left_children":[1,-1,3,5,7,9,11,13,-1,-1,-1,-1,-1,-1,-1],"loss_changes":[5.0550788E5,0E0,1.7720156E3,2.200291E3,2.5796875E1,1.2207498E3,1.6355469E2,1.9860596E2,0E0,0E0,0E0,0E0,0E0,0E0,0E0],"parents":[2147483647,0,0,2,2,3,3,4,4,5,5,6,6,7,7],"right_children":[2,-1,4,6,8,10,12,14,-1,-1,-1,-1,-1,-1,-1],"split_conditions":[2.9920876E-1,-5.310086E-2,5.6145415E3,1E0,7.230294E3,5.3813194E5,1.3699E4,3.50852E4,6.792724E-2,-2.7507439E-3,6.285398E-2,2.6563436E-2,6.3880056E-2,2.4050394E-2,6.500459E-2],"split_indices":[2,0,4,3,4,0,1,1,0,0,0,0,0,0,0],"split_type":[0,0,0,0,0,0,0,0,0,0,0,0,0,0,0],"sum_hessian":[4.1011234E5,2.7908538E5,1.3102695E5,1.1053452E4,1.199735E5,3.625277E3,7.428175E3,3.9008455E3,1.1607266E5,2.679731E3,9.455462E2,3.6142514E2,7.0667495E3,3.7048563E2,3.5303599E3],"tree_param":{"num_deleted":"0","num_feature":"5","num_nodes":"15","size_leaf_vector":"1"}},{"base_weights":[-2.9904228E-1,-5.294013E-2,1.2941792E0,9.0696615E-1,1.3310605E0,2.975328E-1,1.2138959E0,1.2040308E0,6.6743895E-2,-4.962113E-2,2.620281E-2,3.3984218E-2,6.319023E-2,2.6309261E-2,6.377538E-2],"categories":[],"categories_nodes":[],"categories_segments":[],"categories_sizes":[],"default_left":[0,0,0,0,0,0,0,0,0,0,0,0,0,0,0],"id":23,"left_children":[1,-1,3,5,7,9,11,13,-1,-1,-1,-1,-1,-1,-1],"loss_changes":[4.76021E5,0E0,1.7840781E3,2.0636025E3,1.940625E1,1.0993904E3,1.7396875E2,1.5400488E2,0E0,0E0,0E0,0E0,0E0,0E0,0E0],"parents":[2147483647,0,0,2,2,3,3,4,4,5,5,6,6,7,7],"right_children":[2,-1,4,6,8,10,12,14,-1,-1,-1,-1,-1,-1,-1],"split_conditions":[2.9920876E-1,-5.294013E-2,5.735469E3,1E0,7.230294E3,1.977E3,3.1054E4,3.6153E4,6.6743895E-2,-4.962113E-2,2.620281E-2,3.3984218E-2,6.319023E-2,2.6309261E-2,6.377538E-2],"split_indices":[2,0,4,3,4,1,1,1,0,0,0,0,0,0,0],"split_type":[0,0,0,0,0,0,0,0,0,0,0,0,0,0,0],"sum_hessian":[3.932232E5,2.6625988E5,1.2696331E5,1.1086526E4,1.1587678E5,3.7287095E3,7.3578174E3,3.557332E3,1.1231945E5,5.461015E2,3.182608E3,6.5596484E2,6.7018525E3,3.5796658E2,3.1993655E3],"tree_param":{"num_deleted":"0","num_feature":"5","num_nodes":"15","size_leaf_vector":"1"}},{"base_weights":[-2.9690427E-1,-5.278815E-2,1.2711893E0,8.736669E-1,1.3087415E0,2.6207572E-1,1.1844037E0,1.1733484E0,6.565658E-2,-5.179669E-3,5.486114E-2,3.259192E-2,6.181961E-2,2.197511E-2,6.251581E-2],"categories":[],"categories_nodes":[],"categories_segments":[],"categories_sizes":[],"default_left":[0,0,0,0,0,0,0,0,0,0,0,0,0,0,0],"id":24,"left_children":[1,-1,3,5,7,9,11,13,-1,-1,-1,-1,-1,-1,-1],"loss_changes":[4.485212E5,0E0,1.8068594E3,2.0151318E3,3.11875E1,1.1116053E3,1.7402246E2,1.9244336E2,0E0,0E0,0E0,0E0,0E0,0E0,0E0],"parents":[2147483647,0,0,2,2,3,3,4,4,5,5,6,6,7,7],"right_children":[2,-1,4,6,8,10,12,14,-1,-1,-1,-1,-1,-1,-1],"split_conditions":[2.9920876E-1,-5.278815E-2,5.6145415E3,1E0,7.230294E3,4.027072E5,3.1054E4,3.50852E4,6.565658E-2,-5.179669E-3,5.486114E-2,3.259192E-2,6.181961E-2,2.197511E-2,6.251581E-2],"split_indices":[2,0,4,3,4,0,1,1,0,0,0,0,0,0,0],"split_type":[0,0,0,0,0,0,0,0,0,0,0,0,0,0,0],"sum_hessian":[3.7688975E5,2.5398505E5,1.229047E5,1.0651063E4,1.1225364E5,3.6031318E3,7.047932E3,3.6876426E3,1.08566E5,2.5108909E3,1.092241E3,6.5343646E2,6.3944956E3,3.6577603E2,3.3218665E3],"tree_param":{"num_deleted":"0","num_feature":"5","num_nodes":"15","size_leaf_vector":"1"}},{"base_weights":[-2.9487947E-1,-5.264438E-2,1.2499095E0,8.516768E-1,1.2890193E0,2.7006832E-1,1.15857E0,1.1547587E0,6.465518E-2,-1.3812365E-3,5.883617E-2,3.0877072E-2,6.0605433E-2,3.6149845E-2,6.420698E-2],"categories":[],"categories_nodes":[],"categories_segments":[],"categories_sizes":[],"default_left":[0,0,0,0,0,0,0,0,0,0,0,0,0,0,0],"id":25,"left_children":[1,-1,3,5,7,9,11,13,-1,-1,-1,-1,-1,-1,-1],"loss_changes":[4.228683E5,0E0,1.8242344E3,1.8955029E3,2.4703125E1,1.00923865E3,1.8194336E2,1.6433057E2,0E0,0E0,0E0,0E0,0E0,0E0,0E0],"parents":[2147483647,0,0,2,2,3,3,4,4,5,5,6,6,7,7],"right_children":[2,-1,4,6,8,10,12,14,-1,-1,-1,-1,-1,-1,-1],"split_conditions":[2.9920876E-1,-5.264438E-2,5.735469E3,1E0,7.230294E3,5.674404E5,3.1054E4,1E0,6.465518E-2,-1.3812365E-3,5.883617E-2,3.0877072E-2,6.0605433E-2,3.6149845E-2,6.420698E-2],"split_indices":[2,0,4,3,4,0,1,3,0,0,0,0,0,0,0],"split_type":[0,0,0,0,0,0,0,0,0,0,0,0,0,0,0],"sum_hessian":[3.610978E5,2.4224119E5,1.18856625E5,1.0670874E4,1.0818575E5,3.701144E3,6.9697295E3,3.3556982E3,1.0483005E5,2.793085E3,9.0805927E2,6.529389E2,6.3167905E3,8.054079E2,2.5502903E3],"tree_param":{"num_deleted":"0","num_feature":"5","num_nodes":"15","size_leaf_vector":"1"}},{"base_weights":[-2.9295313E-1,-5.250835E-2,1.2300222E0,8.2115006E-1,1.2698836E0,2.3776166E-1,1.1319199E0,1.1259447E0,6.373094E-2,-6.489807E-3,4.7904626E-2,2.9644478E-2,5.9385415E-2,1.8705E-2,6.0415722E-2],"categories":[],"categories_nodes":[],"categories_segments":[],"categories_sizes":[],"default_left":[0,0,0,0,0,0,0,0,0,0,0,0,0,0,0],"id":26,"left_children":[1,-1,3,5,7,9,11,13,-1,-1,-1,-1,-1,-1,-1],"loss_changes":[3.988843E5,0E0,1.8459844E3,1.8487046E3,3.778125E1,9.5636414E2,1.8148926E2,2.0170898E2,0E0,0E0,0E0,0E0,0E0,0E0,0E0],"parents":[2147483647,0,0,2,2,3,3,4,4,5,5,6,6,7,7],"right_children":[2,-1,4,6,8,10,12,14,-1,-1,-1,-1,-1,-1,-1],"split_conditions":[2.9920876E-1,-5.250835E-2,5.6145415E3,1E0,7.230294E3,3.3707344E5,3.1054E4,3.50852E4,6.373094E-2,-6.489807E-3,4.7904626E-2,2.9644478E-2,5.9385415E-2,1.8705E-2,6.0415722E-2],"split_indices":[2,0,4,3,4,0,1,1,0,0,0,0,0,0,0],"split_type":[0,0,0,0,0,0,0,0,0,0,0,0,0,0,0],"sum_hessian":[3.4585706E5,2.3100884E5,1.1484822E5,1.0242005E4,1.0460621E5,3.5744612E3,6.6675435E3,3.479329E3,1.0112688E5,2.3703276E3,1.2041333E3,6.5011664E2,6.017427E3,3.5774786E2,3.121581E3],"tree_param":{"num_deleted":"0","num_feature":"5","num_nodes":"15","size_leaf_vector":"1"}},{"base_weights":[-2.9112846E-1,-5.2379597E-2,1.211482E0,8.013461E-1,1.2530973E0,-6.963034E-1,9.142918E-1,1.1096638E0,6.287622E-2,8.402408E-2,-5.132563E-2,2.2786187E-2,5.685646E-2,3.3256482E-2,6.2270302E-2],"categories":[],"categories_nodes":[],"categories_segments":[],"categories_sizes":[],"default_left":[0,0,0,0,0,0,0,0,0,0,0,0,0,0,0],"id":27,"left_children":[1,-1,3,5,7,9,11,13,-1,-1,-1,-1,-1,-1,-1],"loss_changes":[3.7644547E5,0E0,1.8674375E3,1.7475957E3,3.1140625E1,5.9201196E2,9.609614E2,1.6959644E2,0E0,0E0,0E0,0E0,0E0,0E0,0E0],"parents":[2147483647,0,0,2,2,3,3,4,4,5,5,6,6,7,7],"right_children":[2,-1,4,6,8,10,12,14,-1,-1,-1,-1,-1,-1,-1],"split_conditions":[2.9920876E-1,-5.2379597E-2,5.735469E3,1.667E3,7.230294E3,1.7629E2,1E0,1E0,6.287622E-2,8.402408E-2,-5.132563E-2,2.2786187E-2,5.685646E-2,3.3256482E-2,6.2270302E-2],"split_indices":[2,0,4,1,4,0,3,3,0,0,0,0,0,0,0],"split_type":[0,0,0,0,0,0,0,0,0,0,0,0,0,0,0],"sum_hessian":[3.3115166E5,2.2026892E5,1.1088274E5,1.025355E4,1.00629195E5,7.105096E2,9.54304E3,3.1598135E3,9.7469375E4,7.734141E1,6.331682E2,3.1430989E3,6.3999414E3,7.6848395E2,2.3913296E3],"tree_param":{"num_deleted":"0","num_feature":"5","num_nodes":"15","size_leaf_vector":"1"}},{"base_weights":[-2.8939244E-1,-5.2257705E-2,1.1940585E0,7.726792E-1,1.2365513E0,2.1453808E-1,1.0856354E0,1.0828556E0,6.2084343E-2,-3.3663062E-3,5.4590452E-2,1.7579375E-2,5.6503173E-2,1.5704934E-2,5.8545657E-2],"categories":[],"categories_nodes":[],"categories_segments":[],"categories_sizes":[],"default_left":[0,0,0,0,0,0,0,0,0,0,0,0,0,0,0],"id":28,"left_children":[1,-1,3,5,7,9,11,13,-1,-1,-1,-1,-1,-1,-1],"loss_changes":[3.5541597E5,0E0,1.8914375E3,1.7108984E3,4.490625E1,8.8748627E2,1.9219043E2,2.0978418E2,0E0,0E0,0E0,0E0,0E0,0E0,0E0],"parents":[2147483647,0,0,2,2,3,3,4,4,5,5,6,6,7,7],"right_children":[2,-1,4,6,8,10,12,14,-1,-1,-1,-1,-1,-1,-1],"split_conditions":[2.9920876E-1,-5.2257705E-2,5.6145415E3,1E0,7.230294E3,5.674404E5,1.960245E4,3.50852E4,6.2084343E-2,-3.3663062E-3,5.4590452E-2,1.7579375E-2,5.6503173E-2,1.5704934E-2,5.8545657E-2],"split_indices":[2,0,4,3,4,0,0,1,0,0,0,0,0,0,0],"split_type":[0,0,0,0,0,0,0,0,0,0,0,0,0,0,0],"sum_hessian":[3.1698328E5,2.1000272E5,1.0698056E5,9.837045E3,9.7143516E4,3.548945E3,6.2881E3,3.2751453E3,9.3868375E4,2.692124E3,8.5682104E2,3.7291885E2,5.915181E3,3.4947302E2,2.9256724E3],"tree_param":{"num_deleted":"0","num_feature":"5","num_nodes":"15","size_leaf_vector":"1"}},{"base_weights":[-2.8773582E-1,-5.214227E-2,1.1777107E0,7.5458604E-1,1.2221694E0,2.228585E-1,1.0641869E0,1.0684719E0,6.134944E-2,-4.8435837E-2,2.120364E-2,2.505581E-2,5.6300845E-2,3.0491212E-2,6.0576E-2],"categories":[],"categories_nodes":[],"categories_segments":[],"categories_sizes":[],"default_left":[0,0,0,0,0,0,0,0,0,0,0,0,0,0,0],"id":29,"left_children":[1,-1,3,5,7,9,11,13,-1,-1,-1,-1,-1,-1,-1],"loss_changes":[3.3570006E5,0E0,1.9169062E3,1.6129766E3,3.796875E1,8.7924603E2,1.9997754E2,1.7563574E2,0E0,0E0,0E0,0E0,0E0,0E0,0E0],"parents":[2147483647,0,0,2,2,3,3,4,4,5,5,6,6,7,7],"right_children":[2,-1,4,6,8,10,12,14,-1,-1,-1,-1,-1,-1,-1],"split_conditions":[2.9920876E-1,-5.214227E-2,5.735469E3,1E0,7.230294E3,1.977E3,3.1054E4,1E0,6.134944E-2,-4.8435837E-2,2.120364E-2,2.505581E-2,5.6300845E-2,3.0491212E-2,6.0576E-2],"split_indices":[2,0,4,3,4,1,1,3,0,0,0,0,0,0,0],"split_type":[0,0,0,0,0,0,0,0,0,0,0,0,0,0,0],"sum_hessian":[3.033382E5,2.0019186E5,1.0314633E5,9.843685E3,9.330264E4,3.6378193E3,6.205865E3,2.9697395E3,9.033291E4,5.1369476E2,3.1241245E3,6.355448E2,5.5703203E3,7.33109E2,2.2366304E3],"tree_param":{"num_deleted":"0","num_feature":"5","num_nodes":"15","size_leaf_vector":"1"}},{"base_weights":[-2.861532E-1,-5.2032918E-2,1.1622145E0,7.320125E-1,1.2082727E0,2.1215157E-1,1.0428052E0,1.0485275E0,6.066632E-2,-1.8627124E-2,2.9987758E-2,2.3910055E-2,5.533694E-2,1.8661233E-2,5.7347417E-2],"categories":[],"categories_nodes":[],"categories_segments":[],"categories_sizes":[],"default_left":[0,0,0,0,0,0,0,0,0,0,0,0,0,0,0],"id":30,"left_children":[1,-1,3,5,7,9,11,13,-1,-1,-1,-1,-1,-1,-1],"loss_changes":[3.1718094E5,0E0,1.9467969E3,1.5515537E3,4.2078125E1,8.294387E2,2.0206787E2,1.7828784E2,0E0,0E0,0E0,0E0,0E0,0E0,0E0],"parents":[2147483647,0,0,2,2,3,3,4,4,5,5,6,6,7,7],"right_children":[2,-1,4,6,8,10,12,14,-1,-1,-1,-1,-1,-1,-1],"split_conditions":[2.9920876E-1,-5.2032918E-2,5.735469E3,1E0,7.230294E3,7.3424E4,3.1054E4,4.7676E4,6.066632E-2,-1.8627124E-2,2.9987758E-2,2.3910055E-2,5.533694E-2,1.8661233E-2,5.7347417E-2],"split_indices":[2,0,4,3,4,1,1,1,0,0,0,0,0,0,0],"split_type":[0,0,0,0,0,0,0,0,0,0,0,0,0,0,0],"sum_hessian":[2.9021478E5,1.9081847E5,9.939631E4,9.647419E3,8.974889E4,3.6250867E3,6.0223325E3,2.878444E3,8.6870445E4,1.4402201E3,2.1848667E3,6.3347253E2,5.38886E3,3.8175613E2,2.496688E3],"tree_param":{"num_deleted":"0","num_feature":"5","num_nodes":"15","size_leaf_vector":"1"}},{"base_weights":[-2.8464305E-1,-5.1929314E-2,1.1476549E0,7.106162E-1,1.1953351E0,2.0249869E-1,1.0221648E0,1.0300164E0,6.003041E-2,-2.7102386E-3,5.1711958E-2,2.2817137E-2,5.441292E-2,2.7821645E-2,5.9063416E-2],"categories":[],"categories_nodes":[],"categories_segments":[],"categories_sizes":[],"default_left":[0,0,0,0,0,0,0,0,0,0,0,0,0,0,0],"id":31,"left_children":[1,-1,3,5,7,9,11,13,-1,-1,-1,-1,-1,-1,-1],"loss_changes":[2.9979397E5,0E0,1.9727656E3,1.4890884E3,4.5515625E1,7.791448E2,2.0388281E2,1.8216187E2,0E0,0E0,0E0,0E0,0E0,0E0,0E0],"parents":[2147483647,0,0,2,2,3,3,4,4,5,5,6,6,7,7],"right_children":[2,-1,4,6,8,10,12,14,-1,-1,-1,-1,-1,-1,-1],"split_conditions":[2.9920876E-1,-5.1929314E-2,5.735469E3,1E0,7.230294E3,5.674404E5,3.1054E4,1E0,6.003041E-2,-2.7102386E-3,5.1711958E-2,2.2817137E-2,5.441292E-2,2.7821645E-2,5.9063416E-2],"split_indices":[2,0,4,3,4,0,1,3,0,0,0,0,0,0,0],"split_type":[0,0,0,0,0,0,0,0,0,0,0,0,0,0,0],"sum_hessian":[2.7758903E5,1.8186516E5,9.5723875E4,9.449846E3,8.627402E4,3.6073193E3,5.8425264E3,2.7870166E3,8.348701E4,2.7626746E3,8.4464465E2,6.31397E2,5.2111294E3,6.9963513E2,2.0873813E3],"tree_param":{"num_deleted":"0","num_feature":"5","num_nodes":"15","size_leaf_vector":"1"}},{"base_weights":[-2.8318867E-1,-5.1831126E-2,1.1338288E0,6.8461156E-1,1.1826545E0,1.7558368E-1,1.0006883E0,1.0065997E0,5.943759E-2,-3.8465892E-3,4.9957E-2,2.1973683E-2,5.3468466E-2,9.974464E-3,5.5388767E-2],"categories":[],"categories_nodes":[],"categories_segments":[],"categories_sizes":[],"default_left":[0,0,0,0,0,0,0,0,0,0,0,0,0,0,0],"id":32,"left_children":[1,-1,3,5,7,9,11,13,-1,-1,-1,-1,-1,-1,-1],"loss_changes":[2.834456E5,0E0,1.9998828E3,1.4524717E3,6.028125E1,7.3420575E2,2.0097852E2,2.2751685E2,0E0,0E0,0E0,0E0,0E0,0E0,0E0],"parents":[2147483647,0,0,2,2,3,3,4,4,5,5,6,6,7,7],"right_children":[2,-1,4,6,8,10,12,14,-1,-1,-1,-1,-1,-1,-1],"split_conditions":[2.9920876E-1,-5.1831126E-2,5.6145415E3,1E0,7.230294E3,5.674404E5,3.1054E4,3.50852E4,5.943759E-2,-3.8465892E-3,4.9957E-2,2.1973683E-2,5.3468466E-2,9.974464E-3,5.5388767E-2],"split_indices":[2,0,4,3,4,0,1,1,0,0,0,0,0,0,0],"split_type":[0,0,0,0,0,0,0,0,0,0,0,0,0,0,0],"sum_hessian":[2.654597E5,1.7331497E5,9.214471E4,9.06556E3,8.307916E4,3.4877856E3,5.5777744E3,2.8917825E3,8.018737E4,2.6750884E3,8.126971E2,6.282139E2,4.9495605E3,3.3259128E2,2.5591912E3],"tree_param":{"num_deleted":"0","num_feature":"5","num_nodes":"15","size_leaf_vector":"1"}},{"base_weights":[-2.8179854E-1,-5.173805E-2,1.1207505E0,6.6985166E-1,1.171914E0,-1.4883113E-1,8.538033E-1,9.942829E-1,5.8884233E-2,2.209171E-2,-5.7297237E-2,-7.657323E-2,4.7857955E-2,2.525327E-2,5.7727456E-2],"categories":[],"categories_nodes":[],"categories_segments":[],"categories_sizes":[],"default_left":[0,0,0,0,0,0,0,0,0,0,0,0,0,0,0],"id":33,"left_children":[1,-1,3,5,7,9,11,13,-1,-1,-1,-1,-1,-1,-1],"loss_changes":[2.680689E5,0E0,2.0245781E3,1.3730093E3,5.3171875E1,9.969524E2,1.8489028E3,1.8902441E2,0E0,0E0,0E0,0E0,0E0,0E0,0E0],"parents":[2147483647,0,0,2,2,3,3,4,4,5,5,6,6,7,7],"right_children":[2,-1,4,6,8,10,12,14,-1,-1,-1,-1,-1,-1,-1],"split_conditions":[2.9920876E-1,-5.173805E-2,5.735469E3,3.077119E4,7.230294E3,2.843173E4,3.01079E4,1E0,5.8884233E-2,2.209171E-2,-5.7297237E-2,-7.657323E-2,4.7857955E-2,2.525327E-2,5.7727456E-2],"split_indices":[2,0,4,1,4,0,0,3,0,0,0,0,0,0,0],"split_type":[0,0,0,0,0,0,0,0,0,0,0,0,0,0,0],"sum_hessian":[2.53806E5,1.6515145E5,8.865453E4,9.065984E3,7.958855E4,1.6588594E3,7.407125E3,2.613267E3,7.697528E4,1.0438484E3,6.15011E2,2.9701074E2,7.1101143E3,6.679127E2,1.9453545E3],"tree_param":{"num_deleted":"0","num_feature":"5","num_nodes":"15","size_leaf_vector":"1"}},{"base_weights":[-2.8047818E-1,-5.1649798E-2,1.1082033E0,6.4987814E-1,1.1612804E0,1.6467975E-1,9.689507E-1,9.765982E-1,5.83671E-2,-4.7234725E-2,1.7290821E-2,3.8396057E-2,5.933239E-2,1.3186528E-2,5.4500487E-2],"categories":[],"categories_nodes":[],"categories_segments":[],"categories_sizes":[],"default_left":[0,0,0,0,0,0,0,0,0,0,0,0,0,0,0],"id":34,"left_children":[1,-1,3,5,7,9,11,13,-1,-1,-1,-1,-1,-1,-1],"loss_changes":[2.5357511E5,0E0,2.0541719E3,1.3689634E3,5.7703125E1,7.158819E2,2.1098682E2,1.9474658E2,0E0,0E0,0E0,0E0,0E0,0E0,0E0],"parents":[2147483647,0,0,2,2,3,3,4,4,5,5,6,6,7,7],"right_children":[2,-1,4,6,8,10,12,14,-1,-1,-1,-1,-1,-1,-1],"split_conditions":[2.9920876E-1,-5.1649798E-2,5.735469E3,1E0,7.230294E3,1.977E3,4.3451334E5,4.7676E4,5.83671E-2,-4.7234725E-2,1.7290821E-2,3.8396057E-2,5.933239E-2,1.3186528E-2,5.4500487E-2],"split_indices":[2,0,4,3,4,1,0,1,0,0,0,0,0,0,0],"split_type":[0,0,0,0,0,0,0,0,0,0,0,0,0,0,0],"sum_hessian":[2.426228E5,1.573586E5,8.5264195E4,8.879736E3,7.638446E4,3.538032E3,5.341704E3,2.5308738E3,7.3853586E4,4.838502E2,3.054182E3,2.8244148E3,2.5172893E3,3.6027466E2,2.170599E3],"tree_param":{"num_deleted":"0","num_feature":"5","num_nodes":"15","size_leaf_vector":"1"}},{"base_weights":[-2.7918273E-1,-5.1566105E-2,1.0961367E0,6.3003254E-1,1.1513277E0,1.567597E-1,9.493531E-1,9.600967E-1,5.7883214E-2,-4.644296E-2,1.6421393E-2,3.729732E-2,5.8677275E-2,2.2756955E-2,5.650899E-2],"categories":[],"categories_nodes":[],"categories_segments":[],"categories_sizes":[],"default_left":[0,0,0,0,0,0,0,0,0,0,0,0,0,0,0],"id":35,"left_children":[1,-1,3,5,7,9,11,13,-1,-1,-1,-1,-1,-1,-1],"loss_changes":[2.3991986E5,0E0,2.0895703E3,1.3106526E3,6.153125E1,6.611218E2,2.1440137E2,1.9595703E2,0E0,0E0,0E0,0E0,0E0,0E0,0E0],"parents":[2147483647,0,0,2,2,3,3,4,4,5,5,6,6,7,7],"right_children":[2,-1,4,6,8,10,12,14,-1,-1,-1,-1,-1,-1,-1],"split_conditions":[2.9920876E-1,-5.1566105E-2,5.735469E3,1E0,7.230294E3,1.977E3,4.3451334E5,1E0,5.7883214E-2,-4.644296E-2,1.6421393E-2,3.729732E-2,5.8677275E-2,2.2756955E-2,5.650899E-2],"split_indices":[2,0,4,3,4,1,0,3,0,0,0,0,0,0,0],"split_type":[0,0,0,0,0,0,0,0,0,0,0,0,0,0,0],"sum_hessian":[2.3190284E5,1.4992095E5,8.198189E4,8.708961E3,7.327293E4,3.5239897E3,5.1849707E3,2.448759E3,7.082417E4,4.6815005E2,3.0558396E3,2.7642317E3,2.4207393E3,6.3828876E2,1.8104705E3],"tree_param":{"num_deleted":"0","num_feature":"5","num_nodes":"15","size_leaf_vector":"1"}},{"base_weights":[-2.7792692E-1,-5.1486727E-2,1.0845367E0,6.052202E-1,1.1412829E0,1.326298E-1,9.2844635E-1,9.3854755E-1,5.742997E-2,-5.4318155E-3,4.604679E-2,1.735705E-2,5.0395858E-2,4.9295747E-3,5.2708853E-2],"categories":[],"categories_nodes":[],"categories_segments":[],"categories_sizes":[],"default_left":[0,0,0,0,0,0,0,0,0,0,0,0,0,0,0],"id":36,"left_children":[1,-1,3,5,7,9,11,13,-1,-1,-1,-1,-1,-1,-1],"loss_changes":[2.2704598E5,0E0,2.124711E3,1.2736414E3,7.788281E1,6.5778345E2,2.1759424E2,2.4127905E2,0E0,0E0,0E0,0E0,0E0,0E0,0E0],"parents":[2147483647,0,0,2,2,3,3,4,4,5,5,6,6,7,7],"right_children":[2,-1,4,6,8,10,12,14,-1,-1,-1,-1,-1,-1,-1],"split_conditions":[2.9920876E-1,-5.1486727E-2,5.6145415E3,1E0,7.230294E3,5.3813194E5,3.1054E4,3.50852E4,5.742997E-2,-5.4318155E-3,4.604679E-2,1.735705E-2,5.0395858E-2,4.9295747E-3,5.2708853E-2],"split_indices":[2,0,4,3,4,0,1,1,0,0,0,0,0,0,0],"split_type":[0,0,0,0,0,0,0,0,0,0,0,0,0,0,0],"sum_hessian":[2.216263E5,1.4282358E5,7.880273E4,8.369708E3,7.0433016E4,3.4142874E3,4.9554204E3,2.5446445E3,6.7888375E4,2.6192417E3,7.950456E2,6.132336E2,4.3421865E3,3.165067E2,2.228138E3],"tree_param":{"num_deleted":"0","num_feature":"5","num_nodes":"15","size_leaf_vector":"1"}},{"base_weights":[-2.7672383E-1,-5.141141E-2,1.0736148E0,5.9282243E-1,1.1331444E0,1.4249508E-1,9.1240185E-1,9.2767704E-1,5.700497E-2,-4.56877E-2,1.5263583E-2,3.505129E-2,5.7575174E-2,2.0344874E-2,5.5414278E-2],"categories":[],"categories_nodes":[],"categories_segments":[],"categories_sizes":[],"default_left":[0,0,0,0,0,0,0,0,0,0,0,0,0,0,0],"id":37,"left_children":[1,-1,3,5,7,9,11,13,-1,-1,-1,-1,-1,-1,-1],"loss_changes":[2.1492434E5,0E0,2.1486406E3,1.1993081E3,7.0046875E1,6.0363104E2,2.259939E2,2.028711E2,0E0,0E0,0E0,0E0,0E0,0E0,0E0],"parents":[2147483647,0,0,2,2,3,3,4,4,5,5,6,6,7,7],"right_children":[2,-1,4,6,8,10,12,14,-1,-1,-1,-1,-1,-1,-1],"split_conditions":[2.9920876E-1,-5.141141E-2,5.735469E3,1E0,7.230294E3,1.977E3,4.3451334E5,1E0,5.700497E-2,-4.56877E-2,1.5263583E-2,3.505129E-2,5.7575174E-2,2.0344874E-2,5.5414278E-2],"split_indices":[2,0,4,3,4,1,0,3,0,0,0,0,0,0,0],"split_type":[0,0,0,0,0,0,0,0,0,0,0,0,0,0,0],"sum_hessian":[2.1176178E5,1.36052E5,7.570977E4,8.368627E3,6.734115E4,3.4892175E3,4.879409E3,2.2943564E3,6.5046793E4,4.525731E2,3.0366445E3,2.632264E3,2.247145E3,6.1049347E2,1.683863E3],"tree_param":{"num_deleted":"0","num_feature":"5","num_nodes":"15","size_leaf_vector":"1"}},{"base_weights":[-2.755431E-1,-5.1339936E-2,1.0628588E0,5.743844E-1,1.1248095E0,1.3559796E-1,8.938265E-1,9.113437E-1,5.6606043E-2,-4.188446E-3,4.535539E-2,1.4684147E-2,4.898688E-2,8.2538435E-3,5.207364E-2],"categories":[],"categories_nodes":[],"categories_segments":[],"categories_sizes":[],"default_left":[0,0,0,0,0,0,0,0,0,0,0,0,0,0,0],"id":38,"left_children":[1,-1,3,5,7,9,11,13,-1,-1,-1,-1,-1,-1,-1],"loss_changes":[2.034667E5,0E0,2.183289E3,1.1462817E3,7.503125E1,5.9601855E2,2.3432861E2,2.0860547E2,0E0,0E0,0E0,0E0,0E0,0E0,0E0],"parents":[2147483647,0,0,2,2,3,3,4,4,5,5,6,6,7,7],"right_children":[2,-1,4,6,8,10,12,14,-1,-1,-1,-1,-1,-1,-1],"split_conditions":[2.9920876E-1,-5.1339936E-2,5.735469E3,1E0,7.230294E3,5.674404E5,3.1054E4,4.7676E4,5.6606043E-2,-4.188446E-3,4.535539E-2,1.4684147E-2,4.898688E-2,8.2538435E-3,5.207364E-2],"split_indices":[2,0,4,3,4,0,1,1,0,0,0,0,0,0,0],"split_type":[0,0,0,0,0,0,0,0,0,0,0,0,0,0,0],"sum_hessian":[2.0232628E5,1.2959231E5,7.273397E4,8.212673E3,6.4521293E4,3.4755999E3,4.7370728E3,2.2217925E3,6.22995E4,2.7115134E3,7.640863E2,6.0878625E2,4.1282866E3,3.4065405E2,1.8811384E3],"tree_param":{"num_deleted":"0","num_feature":"5","num_nodes":"15","size_leaf_vector":"1"}},{"base_weights":[-2.7440456E-1,-5.1272105E-2,1.0526618E0,5.5727726E-1,1.1169736E0,1.2965602E-1,8.767005E-1,8.9603823E-1,5.623125E-2,-4.4954807E-2,1.4206685E-2,3.2876298E-2,5.6579985E-2,1.7997237E-2,5.439457E-2],"categories":[],"categories_nodes":[],"categories_segments":[],"categories_sizes":[],"default_left":[0,0,0,0,0,0,0,0,0,0,0,0,0,0,0],"id":39,"left_children":[1,-1,3,5,7,9,11,13,-1,-1,-1,-1,-1,-1,-1],"loss_changes":[1.9266686E5,0E0,2.208039E3,1.0950667E3,7.9265625E1,5.527372E2,2.3733228E2,2.0951978E2,0E0,0E0,0E0,0E0,0E0,0E0,0E0],"parents":[2147483647,0,0,2,2,3,3,4,4,5,5,6,6,7,7],"right_children":[2,-1,4,6,8,10,12,14,-1,-1,-1,-1,-1,-1,-1],"split_conditions":[2.9920876E-1,-5.1272105E-2,5.735469E3,1E0,7.230294E3,1.977E3,4.3451334E5,1E0,5.623125E-2,-4.4954807E-2,1.4206685E-2,3.2876298E-2,5.6579985E-2,1.7997237E-2,5.439457E-2],"split_indices":[2,0,4,3,4,1,0,3,0,0,0,0,0,0,0],"split_type":[0,0,0,0,0,0,0,0,0,0,0,0,0,0,0],"sum_hessian":[1.9327819E5,1.2343102E5,6.984716E4,8.0513716E3,6.1795785E4,3.458337E3,4.5930347E3,2.149611E3,5.9646176E4,4.3784106E2,3.0204958E3,2.5089912E3,2.0840435E3,5.847771E2,1.5648341E3],"tree_param":{"num_deleted":"0","num_feature":"5","num_nodes":"15","size_leaf_vector":"1"}},{"base_weights":[-2.7328336E-1,-5.120771E-2,1.0425773E0,5.3388965E-1,1.1087658E0,2.4790014E-1,1.0259504E0,8.7613785E-1,5.5878785E-2,2.3087239E-2,-1.07264854E-1,-6.00273E-2,5.8449414E-2,3.959874E-4,5.0383877E-2],"categories":[],"categories_nodes":[],"categories_segments":[],"categories_sizes":[],"default_left":[0,0,0,0,0,0,0,0,0,0,0,0,0,0,0],"id":40,"left_children":[1,-1,3,5,7,9,11,13,-1,-1,-1,-1,-1,-1,-1],"loss_changes":[1.8245147E5,0E0,2.2417422E3,1.0821008E3,9.696094E1,2.5320576E3,9.259458E2,2.5238806E2,0E0,0E0,0E0,0E0,0E0,0E0,0E0],"parents":[2147483647,0,0,2,2,3,3,4,4,5,5,6,6,7,7],"right_children":[2,-1,4,6,8,10,12,14,-1,-1,-1,-1,-1,-1,-1],"split_conditions":[2.9920876E-1,-5.120771E-2,5.6145415E3,4.3451334E5,7.230294E3,4.51003E5,4.256142E5,3.50852E4,5.5878785E-2,2.3087239E-2,-1.07264854E-1,-6.00273E-2,5.8449414E-2,3.959874E-4,5.0383877E-2],"split_indices":[2,0,4,0,4,1,1,1,0,0,0,0,0,0,0],"split_type":[0,0,0,0,0,0,0,0,0,0,0,0,0,0,0],"sum_hessian":[1.8462867E5,1.1755517E5,6.707349E4,7.7468857E3,5.9326605E4,4.9200396E3,2.8268464E3,2.240465E3,5.708614E4,4.5295E3,3.905393E2,1.6183917E2,2.665007E3,3.018751E2,1.9385901E3],"tree_param":{"num_deleted":"0","num_feature":"5","num_nodes":"15","size_leaf_vector":"1"}},{"base_weights":[-2.721886E-1,-5.1146563E-2,1.0326029E0,5.2141446E-1,1.1025298E0,2.4438173E-1,1.0142623E0,8.6555696E-1,5.554703E-2,2.2366466E-2,-1.0349977E-1,-5.868698E-2,5.7825476E-2,1.5729142E-2,5.3462982E-2],"categories":[],"categories_nodes":[],"categories_segments":[],"categories_sizes":[],"default_left":[0,0,0,0,0,0,0,0,0,0,0,0,0,0,0],"id":41,"left_children":[1,-1,3,5,7,9,11,13,-1,-1,-1,-1,-1,-1,-1],"loss_changes":[1.727857E5,0E0,2.2860781E3,1.053479E3,8.8609375E1,2.360163E3,8.891179E2,2.1586829E2,0E0,0E0,0E0,0E0,0E0,0E0,0E0],"parents":[2147483647,0,0,2,2,3,3,4,4,5,5,6,6,7,7],"right_children":[2,-1,4,6,8,10,12,14,-1,-1,-1,-1,-1,-1,-1],"split_conditions":[2.9920876E-1,-5.1146563E-2,5.735469E3,4.3451334E5,7.230294E3,4.51003E5,4.256142E5,1E0,5.554703E-2,2.2366466E-2,-1.0349977E-1,-5.868698E-2,5.7825476E-2,1.5729142E-2,5.3462982E-2],"split_indices":[2,0,4,0,4,1,1,3,0,0,0,0,0,0,0],"split_type":[0,0,0,0,0,0,0,0,0,0,0,0,0,0,0],"sum_hessian":[1.7635955E5,1.1195225E5,6.4407305E4,7.7741396E3,5.6633164E4,4.9975625E3,2.7765771E3,2.014967E3,5.4618195E4,4.607769E3,3.8979382E2,1.6070724E2,2.6158699E3,5.6080756E2,1.4541595E3],"tree_param":{"num_deleted":"0","num_feature":"5","num_nodes":"15","size_leaf_vector":"1"}},{"base_weights":[-2.7111238E-1,-5.1088493E-2,1.0228567E0,5.0378126E-1,1.0958453E0,-2.1725231E-1,6.93814E-1,8.4999865E-1,5.5234488E-2,1.686121E-2,-5.805058E-2,-7.878242E-2,4.0653855E-2,3.8212505E-3,4.991695E-2],"categories":[],"categories_nodes":[],"categories_segments":[],"categories_sizes":[],"default_left":[0,0,0,0,0,0,0,0,0,0,0,0,0,0,0],"id":42,"left_children":[1,-1,3,5,7,9,11,13,-1,-1,-1,-1,-1,-1,-1],"loss_changes":[1.636504E5,0E0,2.3271836E3,1.0544292E3,9.4015625E1,8.4935376E2,1.6590188E3,2.1921521E2,0E0,0E0,0E0,0E0,0E0,0E0,0E0],"parents":[2147483647,0,0,2,2,3,3,4,4,5,5,6,6,7,7],"right_children":[2,-1,4,6,8,10,12,14,-1,-1,-1,-1,-1,-1,-1],"split_conditions":[2.9920876E-1,-5.1088493E-2,5.735469E3,3.077119E4,7.230294E3,2.843173E4,3.01079E4,4.7676E4,5.5234488E-2,1.686121E-2,-5.805058E-2,-7.878242E-2,4.0653855E-2,3.8212505E-3,4.991695E-2],"split_indices":[2,0,4,1,4,0,0,1,0,0,0,0,0,0,0],"split_type":[0,0,0,0,0,0,0,0,0,0,0,0,0,0,0],"sum_hessian":[1.6845002E5,1.0661027E5,6.1839746E4,7.6465493E3,5.4193195E4,1.5890022E3,6.057547E3,1.9521373E3,5.224106E4,1.00366956E3,5.853327E2,2.911998E2,5.766347E3,3.231888E2,1.6289485E3],"tree_param":{"num_deleted":"0","num_feature":"5","num_nodes":"15","size_leaf_vector":"1"}},{"base_weights":[-2.701074E-1,-5.103333E-2,1.0137556E0,4.8804238E-1,1.0895352E0,2.1666732E-1,9.9428993E-1,8.353704E-1,5.4939806E-2,2.0723412E-2,-1.0090782E-1,-5.667461E-2,5.6849893E-2,1.3528335E-2,5.2577164E-2],"categories":[],"categories_nodes":[],"categories_segments":[],"categories_sizes":[],"default_left":[0,0,0,0,0,0,0,0,0,0,0,0,0,0,0],"id":43,"left_children":[1,-1,3,5,7,9,11,13,-1,-1,-1,-1,-1,-1,-1],"loss_changes":[1.5503619E5,0E0,2.3487969E3,1.0229468E3,9.862109E1,2.178122E3,8.123257E2,2.216676E2,0E0,0E0,0E0,0E0,0E0,0E0,0E0],"parents":[2147483647,0,0,2,2,3,3,4,4,5,5,6,6,7,7],"right_children":[2,-1,4,6,8,10,12,14,-1,-1,-1,-1,-1,-1,-1],"split_conditions":[2.9920876E-1,-5.103333E-2,5.735469E3,4.3451334E5,7.230294E3,4.51003E5,4.256142E5,1E0,5.4939806E-2,2.0723412E-2,-1.0090782E-1,-5.667461E-2,5.6849893E-2,1.3528335E-2,5.2577164E-2],"split_indices":[2,0,4,0,4,1,1,3,0,0,0,0,0,0,0],"split_type":[0,0,0,0,0,0,0,0,0,0,0,0,0,0,0],"sum_hessian":[1.6085898E5,1.0151769E5,5.9341297E4,7.4985454E3,5.184275E4,4.9020747E3,2.596471E3,1.8896278E3,4.995312E4,4.5167583E3,3.853161E2,1.5444907E2,2.442022E3,5.387962E2,1.3508317E3],"tree_param":{"num_deleted":"0","num_feature":"5","num_nodes":"15","size_leaf_vector":"1"}},{"base_weights":[-2.6907128E-1,-5.0980933E-2,1.0044609E0,4.714297E-1,1.0834963E0,6.782009E-2,8.066385E-1,8.2005984E-1,5.466173E-2,-1.8724117E-2,2.0052977E-2,2.9295687E-2,5.4828405E-2,1.7954268E-3,4.8902884E-2],"categories":[],"categories_nodes":[],"categories_segments":[],"categories_sizes":[],"default_left":[0,0,0,0,0,0,0,0,0,0,0,0,0,0,0],"id":44,"left_children":[1,-1,3,5,7,9,11,13,-1,-1,-1,-1,-1,-1,-1],"loss_changes":[1.4687105E5,0E0,2.3848672E3,9.94891E2,1.0422656E2,5.0012256E2,2.3984961E2,2.2316772E2,0E0,0E0,0E0,0E0,0E0,0E0,0E0],"parents":[2147483647,0,0,2,2,3,3,4,4,5,5,6,6,7,7],"right_children":[2,-1,4,6,8,10,12,14,-1,-1,-1,-1,-1,-1,-1],"split_conditions":[2.9920876E-1,-5.0980933E-2,5.735469E3,1E0,7.230294E3,8.2437E4,4.3451334E5,4.7676E4,5.466173E-2,-1.8724117E-2,2.0052977E-2,2.9295687E-2,5.4828405E-2,1.7954268E-3,4.8902884E-2],"split_indices":[2,0,4,3,4,1,0,1,0,0,0,0,0,0,0],"split_type":[0,0,0,0,0,0,0,0,0,0,0,0,0,0,0],"sum_hessian":[1.5362436E5,9.666339E4,5.6960977E4,7.3769604E3,4.9584016E4,3.3619456E3,4.0150146E3,1.8314491E3,4.7752566E4,1.437336E3,1.9246095E3,2.315087E3,1.6999277E3,3.1552716E2,1.5159219E3],"tree_param":{"num_deleted":"0","num_feature":"5","num_nodes":"15","size_leaf_vector":"1"}},{"base_weights":[-2.680555E-1,-5.0931137E-2,9.9563605E-1,4.56419E-1,1.077784E0,2.1364465E-1,1.0137353E0,8.0564094E-1,5.4399103E-2,1.9460998E-2,-9.877689E-2,-4.4551186E-2,5.638051E-2,1.140519E-2,5.174033E-2],"categories":[],"categories_nodes":[],"categories_segments":[],"categories_sizes":[],"default_left":[0,0,0,0,0,0,0,0,0,0,0,0,0,0,0],"id":45,"left_children":[1,-1,3,5,7,9,11,13,-1,-1,-1,-1,-1,-1,-1],"loss_changes":[1.391675E5,0E0,2.4067266E3,9.732008E2,1.0900781E2,1.9576576E3,4.9199634E2,2.2685999E2,0E0,0E0,0E0,0E0,0E0,0E0,0E0],"parents":[2147483647,0,0,2,2,3,3,4,4,5,5,6,6,7,7],"right_children":[2,-1,4,6,8,10,12,14,-1,-1,-1,-1,-1,-1,-1],"split_conditions":[2.9920876E-1,-5.0931137E-2,5.735469E3,5.3813194E5,7.230294E3,5.634562E5,5.02405E5,1E0,5.4399103E-2,1.9460998E-2,-9.877689E-2,-4.4551186E-2,5.638051E-2,1.140519E-2,5.174033E-2],"split_indices":[2,0,4,0,4,1,1,3,0,0,0,0,0,0,0],"split_type":[0,0,0,0,0,0,0,0,0,0,0,0,0,0,0],"sum_hessian":[1.4669486E5,9.20367E4,5.4658164E4,7.247165E3,4.7411E4,5.0688354E3,2.1783298E3,1.7735316E3,4.563747E4,4.7060234E3,3.6281216E2,1.14631935E2,2.063698E3,5.1852E2,1.2550116E3],"tree_param":{"num_deleted":"0","num_feature":"5","num_nodes":"15","size_leaf_vector":"1"}},{"base_weights":[-2.670359E-1,-5.0883807E-2,9.8656404E-1,4.6258256E-1,1.0759767E0,6.3969314E-2,7.983422E-1,5.108544E-1,1.0792646E0,-1.9228088E-2,2.0044034E-2,1.2133888E-3,4.3573048E-2,-4.3988857E-2,4.8372082E-2,4.4220015E-2,5.419744E-2],"categories":[],"categories_nodes":[],"categories_segments":[],"categories_sizes":[],"default_left":[0,0,0,0,0,0,0,0,0,0,0,0,0,0,0,0,0],"id":46,"left_children":[1,-1,3,5,7,9,11,13,15,-1,-1,-1,-1,-1,-1,-1,-1],"loss_changes":[1.3185512E5,0E0,2.4434805E3,1.0233478E3,6.7046875E1,5.367869E2,2.3081372E2,2.0144855E2,1.6417969E1,0E0,0E0,0E0,0E0,0E0,0E0,0E0,0E0],"parents":[2147483647,0,0,2,2,3,3,4,4,5,5,6,6,7,7,8,8],"right_children":[2,-1,4,6,8,10,12,14,16,-1,-1,-1,-1,-1,-1,-1,-1],"split_conditions":[2.9920876E-1,-5.0883807E-2,6.0974673E3,1E0,5E1,8.2437E4,1.960245E4,8.180072E3,7.230294E3,-1.9228088E-2,2.0044034E-2,1.2133888E-3,4.3573048E-2,-4.3988857E-2,4.8372082E-2,4.4220015E-2,5.419744E-2],"split_indices":[2,0,4,3,1,1,0,4,4,0,0,0,0,0,0,0,0],"split_type":[0,0,0,0,0,0,0,0,0,0,0,0,0,0,0,0,0],"sum_hessian":[1.4009081E5,8.762741E4,5.24634E4,7.6690923E3,4.479431E4,3.5213276E3,4.1477646E3,2.8147192E2,4.4512836E4,1.503179E3,2.0181487E3,3.6560733E2,3.7821572E3,6.342975E1,2.1804216E2,1.1367784E3,4.337606E4],"tree_param":{"num_deleted":"0","num_feature":"5","num_nodes":"17","size_leaf_vector":"1"}},{"base_weights":[-2.6604885E-1,-5.083881E-2,9.780112E-1,4.479786E-1,1.070952E0,6.1022926E-2,7.8169495E-1,4.9824604E-1,1.0743455E0,-4.681488E-2,1.0445152E-2,2.8949073E-2,5.3909976E-2,-4.1617095E-2,4.7940668E-2,4.3551873E-2,5.39647E-2],"categories":[],"categories_nodes":[],"categories_segments":[],"categories_sizes":[],"default_left":[0,0,0,0,0,0,0,0,0,0,0,0,0,0,0,0,0],"id":47,"left_children":[1,-1,3,5,7,9,11,13,15,-1,-1,-1,-1,-1,-1,-1,-1],"loss_changes":[1.2495624E5,0E0,2.4656055E3,9.6947327E2,6.7328125E1,5.180481E2,2.2537817E2,1.8963467E2,1.8949219E1,0E0,0E0,0E0,0E0,0E0,0E0,0E0,0E0],"parents":[2147483647,0,0,2,2,3,3,4,4,5,5,6,6,7,7,8,8],"right_children":[2,-1,4,6,8,10,12,14,16,-1,-1,-1,-1,-1,-1,-1,-1],"split_conditions":[2.9920876E-1,-5.083881E-2,6.0974673E3,1E0,5E1,1.977E3,4.468652E5,8.180072E3,7.230294E3,-4.681488E-2,1.0445152E-2,2.8949073E-2,5.3909976E-2,-4.1617095E-2,4.7940668E-2,4.3551873E-2,5.39647E-2],"split_indices":[2,0,4,3,1,1,0,4,4,0,0,0,0,0,0,0,0],"split_type":[0,0,0,0,0,0,0,0,0,0,0,0,0,0,0,0,0],"sum_hessian":[1.3376212E5,8.3425695E4,5.033643E4,7.5307007E3,4.280573E4,3.502341E3,4.0283596E3,2.738775E2,4.253185E4,4.3756555E2,3.0647754E3,2.4289172E3,1.5994424E3,6.4518364E1,2.0935915E2,1.097733E3,4.143412E4],"tree_param":{"num_deleted":"0","num_feature":"5","num_nodes":"17","size_leaf_vector":"1"}},{"base_weights":[-2.6505893E-1,-5.079603E-2,9.694409E-1,4.3333718E-1,1.0661632E0,2.0645912E-1,9.9197465E-1,7.7539456E-1,5.369394E-2,1.8681264E-2,-9.913819E-2,-4.5728534E-2,5.548005E-2,-1.00325225E-2,4.84352E-2],"categories":[],"categories_nodes":[],"categories_segments":[],"categories_sizes":[],"default_left":[0,0,0,0,0,0,0,0,0,0,0,0,0,0,0],"id":48,"left_children":[1,-1,3,5,7,9,11,13,-1,-1,-1,-1,-1,-1,-1],"loss_changes":[1.18419766E5,0E0,2.490879E3,9.310835E2,7.0046875E1,1.942905E3,4.943518E2,2.1964001E2,0E0,0E0,0E0,0E0,0E0,0E0,0E0],"parents":[2147483647,0,0,2,2,3,3,4,4,5,5,6,6,7,7],"right_children":[2,-1,4,6,8,10,12,14,-1,-1,-1,-1,-1,-1,-1],"split_conditions":[2.9920876E-1,-5.079603E-2,6.0974673E3,5.3813194E5,7.230294E3,5.634562E5,5.02405E5,5.1717E4,5.369394E-2,1.8681264E-2,-9.913819E-2,-4.5728534E-2,5.548005E-2,-1.00325225E-2,4.84352E-2],"split_indices":[2,0,4,0,4,1,1,1,0,0,0,0,0,0,0],"split_type":[0,0,0,0,0,0,0,0,0,0,0,0,0,0,0],"sum_hessian":[1.2772245E5,7.9422125E4,4.830033E4,7.4027715E3,4.0897555E4,5.285627E3,2.1171445E3,1.1132888E3,3.9784266E4,4.9243354E3,3.6129178E2,1.14653244E2,2.0024913E3,1.7967105E2,9.3361774E2],"tree_param":{"num_deleted":"0","num_feature":"5","num_nodes":"15","size_leaf_vector":"1"}},{"base_weights":[-2.6407024E-1,-5.0755333E-2,9.6067554E-1,4.420755E-1,1.0662807E0,5.6726247E-2,7.76436E-1,5.8771574E-1,5.3432416E-2,-2.1279396E-2,1.9479431E-2,2.8942257E-2,5.3198528E-2,-6.371757E-2,4.7032725E-2],"categories":[],"categories_nodes":[],"categories_segments":[],"categories_sizes":[],"default_left":[0,0,0,0,0,0,0,0,0,0,0,0,0,0,0],"id":49,"left_children":[1,-1,3,5,7,9,11,13,-1,-1,-1,-1,-1,-1,-1],"loss_changes":[1.1221569E5,0E0,2.5250586E3,1.01035693E3,2.5929688E1,5.93682E2,2.217644E2,1.6963934E2,0E0,0E0,0E0,0E0,0E0,0E0,0E0],"parents":[2147483647,0,0,2,2,3,3,4,4,5,5,6,6,7,7],"right_children":[2,-1,4,6,8,10,12,14,-1,-1,-1,-1,-1,-1,-1],"split_conditions":[2.9920876E-1,-5.0755333E-2,6.6431396E3,1E0,5E1,7.3424E4,4.3451334E5,8.180072E3,5.3432416E-2,-2.1279396E-2,1.9479431E-2,2.8942257E-2,5.3198528E-2,-6.371757E-2,4.7032725E-2],"split_indices":[2,0,4,3,1,1,0,4,0,0,0,0,0,0,0],"split_type":[0,0,0,0,0,0,0,0,0,0,0,0,0,0,0],"sum_hessian":[1.2196509E5,7.560772E4,4.6357383E4,7.864071E3,3.849331E4,3.6685635E3,4.195507E3,2.1830493E2,3.8275004E4,1.4901508E3,2.1784128E3,2.5237783E3,1.6717289E3,2.6287546E1,1.920174E2],"tree_param":{"num_deleted":"0","num_feature":"5","num_nodes":"15","size_leaf_vector":"1"}},{"base_weights":[-2.6309857E-1,-5.0716627E-2,9.5232236E-1,4.2809692E-1,1.0621293E0,5.412457E-2,7.5998443E-1,5.738721E-1,5.322907E-2,-4.903888E-2,1.004257E-2,2.8043458E-2,5.2841116E-2,-6.0508072E-2,4.6610203E-2],"categories":[],"categories_nodes":[],"categories_segments":[],"categories_sizes":[],"default_left":[0,0,0,0,0,0,0,0,0,0,0,0,0,0,0],"id":50,"left_children":[1,-1,3,5,7,9,11,13,-1,-1,-1,-1,-1,-1,-1],"loss_changes":[1.0635784E5,0E0,2.5469844E3,9.558413E2,2.6660156E1,5.5511993E2,2.2487354E2,1.6031017E2,0E0,0E0,0E0,0E0,0E0,0E0,0E0],"parents":[2147483647,0,0,2,2,3,3,4,4,5,5,6,6,7,7],"right_children":[2,-1,4,6,8,10,12,14,-1,-1,-1,-1,-1,-1,-1],"split_conditions":[2.9920876E-1,-5.0716627E-2,6.6431396E3,1E0,5E1,1.977E3,4.3451334E5,8.180072E3,5.322907E-2,-4.903888E-2,1.004257E-2,2.8043458E-2,5.2841116E-2,-6.0508072E-2,4.6610203E-2],"split_indices":[2,0,4,3,1,1,0,4,0,0,0,0,0,0,0],"split_type":[0,0,0,0,0,0,0,0,0,0,0,0,0,0,0],"sum_hessian":[1.1645315E5,7.197379E4,4.4479355E4,7.723912E3,3.675544E4,3.6469849E3,4.0769272E3,2.1147208E2,3.6543973E4,4.3803912E2,3.2089456E3,2.476145E3,1.6007823E3,2.7072763E1,1.843993E2],"tree_param":{"num_deleted":"0","num_feature":"5","num_nodes":"15","size_leaf_vector":"1"}},{"base_weights":[-2.6212478E-1,-5.067979E-2,9.438939E-1,4.1406977E-1,1.0581753E0,1.9367109E-1,9.738926E-1,5.602336E-1,5.3035744E-2,1.7665682E-2,-9.937345E-2,-4.7484063E-2,5.465133E-2,-5.7520457E-2,4.6189006E-2],"categories":[],"categories_nodes":[],"categories_segments":[],"categories_sizes":[],"default_left":[0,0,0,0,0,0,0,0,0,0,0,0,0,0,0],"id":51,"left_children":[1,-1,3,5,7,9,11,13,-1,-1,-1,-1,-1,-1,-1],"loss_changes":[1.00803484E5,0E0,2.5714102E3,9.3006885E2,2.7375E1,1.9119673E3,5.0648047E2,1.5157153E2,0E0,0E0,0E0,0E0,0E0,0E0,0E0],"parents":[2147483647,0,0,2,2,3,3,4,4,5,5,6,6,7,7],"right_children":[2,-1,4,6,8,10,12,14,-1,-1,-1,-1,-1,-1,-1],"split_conditions":[2.9920876E-1,-5.067979E-2,6.6431396E3,5.3813194E5,5E1,5.634562E5,5.02405E5,8.180072E3,5.3035744E-2,1.7665682E-2,-9.937345E-2,-4.7484063E-2,5.465133E-2,-5.7520457E-2,4.6189006E-2],"split_indices":[2,0,4,0,1,1,1,4,0,0,0,0,0,0,0],"split_type":[0,0,0,0,0,0,0,0,0,0,0,0,0,0,0],"sum_hessian":[1.1119552E5,6.851212E4,4.2683406E4,7.5932334E3,3.5090176E4,5.469175E3,2.1240583E3,2.049135E2,3.488526E4,5.1100234E3,3.5915158E2,1.15331955E2,2.0087264E3,2.7814552E1,1.7709894E2],"tree_param":{"num_deleted":"0","num_feature":"5","num_nodes":"15","size_leaf_vector":"1"}},{"base_weights":[-2.6114586E-1,-5.0644733E-2,9.3524045E-1,3.9963543E-1,1.0544049E0,-2.3178084E-1,5.905693E-1,5.467899E-1,5.2851763E-2,1.4910469E-2,-6.0164094E-2,-8.680144E-2,3.6011092E-2,-5.4732926E-2,4.5768473E-2],"categories":[],"categories_nodes":[],"categories_segments":[],"categories_sizes":[],"default_left":[0,0,0,0,0,0,0,0,0,0,0,0,0,0,0],"id":52,"left_children":[1,-1,3,5,7,9,11,13,-1,-1,-1,-1,-1,-1,-1],"loss_changes":[9.552979E4,0E0,2.6023516E3,9.069585E2,2.8050781E1,9.078531E2,1.7518022E3,1.4337492E2,0E0,0E0,0E0,0E0,0E0,0E0,0E0],"parents":[2147483647,0,0,2,2,3,3,4,4,5,5,6,6,7,7],"right_children":[2,-1,4,6,8,10,12,14,-1,-1,-1,-1,-1,-1,-1],"split_conditions":[2.9920876E-1,-5.0644733E-2,6.6431396E3,3.077119E4,5E1,2.925584E4,3.01079E4,8.180072E3,5.2851763E-2,1.4910469E-2,-6.0164094E-2,-8.680144E-2,3.6011092E-2,-5.4732926E-2,4.5768473E-2],"split_indices":[2,0,4,1,1,0,0,4,0,0,0,0,0,0,0],"split_type":[0,0,0,0,0,0,0,0,0,0,0,0,0,0,0],"sum_hessian":[1.0618591E5,6.5214734E4,4.097117E4,7.4760464E3,3.3495125E4,1.728969E3,5.7470776E3,1.9862016E2,3.3296504E4,1.1220808E3,6.068882E2,2.915124E2,5.4555654E3,2.8515099E1,1.7010506E2],"tree_param":{"num_deleted":"0","num_feature":"5","num_nodes":"15","size_leaf_vector":"1"}},{"base_weights":[-2.602417E-1,-5.0611358E-2,9.271809E-1,3.920955E-1,1.0520495E0,2.35278E-2,7.3046976E-1,6.0580075E-1,5.271205E-2,-2.136739E-2,1.6936595E-2,2.6528725E-2,5.224908E-2,-4.4384576E-2,4.5348044E-2],"categories":[],"categories_nodes":[],"categories_segments":[],"categories_sizes":[],"default_left":[0,0,0,0,0,0,0,0,0,0,0,0,0,0,0],"id":53,"left_children":[1,-1,3,5,7,9,11,13,-1,-1,-1,-1,-1,-1,-1],"loss_changes":[9.055138E4,0E0,2.613746E3,9.2771814E2,1.3277344E1,5.131484E2,2.2821094E2,1.0308217E2,0E0,0E0,0E0,0E0,0E0,0E0,0E0],"parents":[2147483647,0,0,2,2,3,3,4,4,5,5,6,6,7,7],"right_children":[2,-1,4,6,8,10,12,14,-1,-1,-1,-1,-1,-1,-1],"split_conditions":[2.9920876E-1,-5.0611358E-2,6.7993896E3,1E0,5E1,7.3424E4,4.3451334E5,8.180072E3,5.271205E-2,-2.136739E-2,1.6936595E-2,2.6528725E-2,5.224908E-2,-4.4384576E-2,4.5348044E-2],"split_indices":[2,0,4,3,1,1,0,4,0,0,0,0,0,0,0],"split_type":[0,0,0,0,0,0,0,0,0,0,0,0,0,0,0],"sum_hessian":[1.0137866E5,6.2074062E4,3.9304594E4,7.456073E3,3.1848521E4,3.5835637E3,3.8725095E3,1.8711932E2,3.1661402E4,1.4657377E3,2.1178262E3,2.4020398E3,1.4704697E3,2.3712067E1,1.6340726E2],"tree_param":{"num_deleted":"0","num_feature":"5","num_nodes":"15","size_leaf_vector":"1"}},{"base_weights":[-2.5925785E-1,-5.0579567E-2,9.1892916E-1,3.8597426E-1,1.0503559E0,1.7298768E-1,9.696519E-1,6.7170656E-1,5.26034E-2,1.6455462E-2,-9.952665E-2,-4.3010674E-2,5.4066032E-2,-3.1582765E-2,4.4927154E-2],"categories":[],"categories_nodes":[],"categories_segments":[],"categories_sizes":[],"default_left":[0,0,0,0,0,0,0,0,0,0,0,0,0,0,0],"id":54,"left_children":[1,-1,3,5,7,9,11,13,-1,-1,-1,-1,-1,-1,-1],"loss_changes":[8.58337E4,0E0,2.6299414E3,9.236548E2,3.9453125E-1,1.8648672E3,4.2261987E2,6.626465E1,0E0,0E0,0E0,0E0,0E0,0E0,0E0],"parents":[2147483647,0,0,2,2,3,3,4,4,5,5,6,6,7,7],"right_children":[2,-1,4,6,8,10,12,14,-1,-1,-1,-1,-1,-1,-1],"split_conditions":[2.9920876E-1,-5.0579567E-2,6.989964E3,5.674404E5,5E1,5.634562E5,5.634562E5,8.180072E3,5.26034E-2,1.6455462E-2,-9.952665E-2,-4.3010674E-2,5.4066032E-2,-3.1582765E-2,4.4927154E-2],"split_indices":[2,0,4,0,1,1,1,4,0,0,0,0,0,0,0],"split_type":[0,0,0,0,0,0,0,0,0,0,0,0,0,0,0],"sum_hessian":[9.6803945E4,5.9082848E4,3.7721094E4,7.481122E3,3.023997E4,5.501582E3,1.97954E3,1.7582253E2,3.0064148E4,5.145321E3,3.5626154E2,1.0549622E2,1.8740438E3,1.8828066E1,1.5699446E2],"tree_param":{"num_deleted":"0","num_feature":"5","num_nodes":"15","size_leaf_vector":"1"}},{"base_weights":[-2.5825736E-1,-5.054928E-2,9.1026527E-1,3.7240115E-1,1.0471883E0,-2.6228115E-1,5.656213E-1,6.585653E-1,5.244863E-2,1.2407908E-2,-6.0601592E-2,-8.690357E-2,3.463635E-2,-3.0374218E-2,4.4505324E-2],"categories":[],"categories_nodes":[],"categories_segments":[],"categories_sizes":[],"default_left":[0,0,0,0,0,0,0,0,0,0,0,0,0,0,0],"id":55,"left_children":[1,-1,3,5,7,9,11,13,-1,-1,-1,-1,-1,-1,-1],"loss_changes":[8.134669E4,0E0,2.6554727E3,9.0912634E2,1.1191406E0,8.4668805E2,1.6732544E3,6.3767723E1,0E0,0E0,0E0,0E0,0E0,0E0,0E0],"parents":[2147483647,0,0,2,2,3,3,4,4,5,5,6,6,7,7],"right_children":[2,-1,4,6,8,10,12,14,-1,-1,-1,-1,-1,-1,-1],"split_conditions":[2.9920876E-1,-5.054928E-2,6.989964E3,3.077119E4,5E1,2.925584E4,3.01079E4,8.180072E3,5.244863E-2,1.2407908E-2,-6.0601592E-2,-8.690357E-2,3.463635E-2,-3.0374218E-2,4.4505324E-2],"split_indices":[2,0,4,1,1,0,0,4,0,0,0,0,0,0,0],"split_type":[0,0,0,0,0,0,0,0,0,0,0,0,0,0,0],"sum_hessian":[9.24523E4,5.6234176E4,3.6218117E4,7.3678525E3,2.8850266E4,1.7122571E3,5.6555957E3,1.7004216E2,2.8680223E4,1.1174856E3,5.9477155E2,2.8373138E2,5.3718643E3,1.9185894E1,1.5085628E2],"tree_param":{"num_deleted":"0","num_feature":"5","num_nodes":"15","size_leaf_vector":"1"}},{"base_weights":[-2.5733998E-1,-5.052042E-2,9.022258E-1,3.603325E-1,1.0441625E0,-0E0,7.017658E-1,6.4544886E-1,5.2301127E-2,-4.930296E-2,6.863825E-3,1.2242909E-2,4.23133E-2,-2.9217688E-2,4.4082116E-2],"categories":[],"categories_nodes":[],"categories_segments":[],"categories_sizes":[],"default_left":[0,0,0,0,0,0,0,0,0,0,0,0,0,0,0],"id":56,"left_children":[1,-1,3,5,7,9,11,13,-1,-1,-1,-1,-1,-1,-1],"loss_changes":[7.711109E4,0E0,2.6614766E3,8.9359247E2,1.8378906E0,4.8322314E2,2.3737573E2,6.1358353E1,0E0,0E0,0E0,0E0,0E0,0E0,0E0],"parents":[2147483647,0,0,2,2,3,3,4,4,5,5,6,6,7,7],"right_children":[2,-1,4,6,8,10,12,14,-1,-1,-1,-1,-1,-1,-1],"split_conditions":[2.9920876E-1,-5.052042E-2,6.989964E3,1E0,5E1,1.977E3,5.2103E4,8.180072E3,5.2301127E-2,-4.930296E-2,6.863825E-3,1.2242909E-2,4.23133E-2,-2.9217688E-2,4.4082116E-2],"split_indices":[2,0,4,3,1,1,1,4,0,0,0,0,0,0,0],"split_type":[0,0,0,0,0,0,0,0,0,0,0,0,0,0,0],"sum_hessian":[8.827408E4,5.3521387E4,3.475269E4,7.231646E3,2.7521045E4,3.5215989E3,3.7100474E3,1.6451526E2,2.735653E4,4.2161023E2,3.0999885E3,9.0943756E2,2.8006099E3,1.953281E1,1.4498244E2],"tree_param":{"num_deleted":"0","num_feature":"5","num_nodes":"15","size_leaf_vector":"1"}},{"base_weights":[-2.563421E-1,-5.049291E-2,8.9391947E-1,3.4834984E-1,1.0412688E0,1.4030887E-1,9.5474946E-1,6.323586E-1,5.216041E-2,1.47487465E-2,-9.8096065E-2,-4.096016E-2,5.3463068E-2,-2.8110608E-2,4.3657135E-2],"categories":[],"categories_nodes":[],"categories_segments":[],"categories_sizes":[],"default_left":[0,0,0,0,0,0,0,0,0,0,0,0,0,0,0],"id":57,"left_children":[1,-1,3,5,7,9,11,13,-1,-1,-1,-1,-1,-1,-1],"loss_changes":[7.3093945E4,0E0,2.6708086E3,8.916912E2,2.5527344E0,1.7335461E3,3.8246167E2,5.903292E1,0E0,0E0,0E0,0E0,0E0,0E0,0E0],"parents":[2147483647,0,0,2,2,3,3,4,4,5,5,6,6,7,7],"right_children":[2,-1,4,6,8,10,12,14,-1,-1,-1,-1,-1,-1,-1],"split_conditions":[2.9920876E-1,-5.049291E-2,6.989964E3,5.674404E5,5E1,5.634562E5,5.634562E5,8.180072E3,5.216041E-2,1.47487465E-2,-9.8096065E-2,-4.096016E-2,5.3463068E-2,-2.8110608E-2,4.3657135E-2],"split_indices":[2,0,4,0,1,1,1,4,0,0,0,0,0,0,0],"split_type":[0,0,0,0,0,0,0,0,0,0,0,0,0,0,0],"sum_hessian":[8.430069E4,5.093817E4,3.3362516E4,7.1124937E3,2.6250023E4,5.3155674E3,1.796926E3,1.5923167E2,2.6090793E4,4.9655166E3,3.500511E2,1.0071624E2,1.6962098E3,1.9868982E1,1.393627E2],"tree_param":{"num_deleted":"0","num_feature":"5","num_nodes":"15","size_leaf_vector":"1"}},{"base_weights":[-2.5531378E-1,-5.0466668E-2,8.8519E-1,3.358617E-1,1.038498E0,1.336783E-1,9.474271E-1,6.192972E-1,5.202601E-2,1.4074372E-2,-9.5243454E-2,-3.9577443E-2,5.317546E-2,-2.705055E-2,4.3230038E-2],"categories":[],"categories_nodes":[],"categories_segments":[],"categories_sizes":[],"default_left":[0,0,0,0,0,0,0,0,0,0,0,0,0,0,0],"id":58,"left_children":[1,-1,3,5,7,9,11,13,-1,-1,-1,-1,-1,-1,-1],"loss_changes":[6.9273516E4,0E0,2.6878242E3,8.612397E2,3.2695312E0,1.597704E3,3.6455383E2,5.6788162E1,0E0,0E0,0E0,0E0,0E0,0E0,0E0],"parents":[2147483647,0,0,2,2,3,3,4,4,5,5,6,6,7,7],"right_children":[2,-1,4,6,8,10,12,14,-1,-1,-1,-1,-1,-1,-1],"split_conditions":[2.9920876E-1,-5.0466668E-2,6.989964E3,5.674404E5,5E1,5.634562E5,5.634562E5,8.180072E3,5.202601E-2,1.4074372E-2,-9.5243454E-2,-3.9577443E-2,5.317546E-2,-2.705055E-2,4.3230038E-2],"split_indices":[2,0,4,0,1,1,1,4,0,0,0,0,0,0,0],"split_type":[0,0,0,0,0,0,0,0,0,0,0,0,0,0,0],"sum_hessian":[8.052284E4,4.847846E4,3.2044383E4,7.0093135E3,2.5035068E4,5.2876665E3,1.7216472E3,1.5418187E2,2.4880887E4,4.944534E3,3.431323E2,9.957673E1,1.6220706E3,2.0194584E1,1.3398729E2],"tree_param":{"num_deleted":"0","num_feature":"5","num_nodes":"15","size_leaf_vector":"1"}},{"base_weights":[-2.5427008E-1,-5.044163E-2,8.7639695E-1,3.2371926E-1,1.0358412E0,1.273364E-1,9.402212E-1,6.0626745E-1,5.1897507E-2,1.3428149E-2,-9.2669465E-2,-3.8236197E-2,5.2897573E-2,-2.6035253E-2,4.2800494E-2],"categories":[],"categories_nodes":[],"categories_segments":[],"categories_sizes":[],"default_left":[0,0,0,0,0,0,0,0,0,0,0,0,0,0,0],"id":59,"left_children":[1,-1,3,5,7,9,11,13,-1,-1,-1,-1,-1,-1,-1],"loss_changes":[6.565177E4,0E0,2.7021836E3,8.3123737E2,3.9824219E0,1.4751923E3,3.4768823E2,5.4620983E1,0E0,0E0,0E0,0E0,0E0,0E0,0E0],"parents":[2147483647,0,0,2,2,3,3,4,4,5,5,6,6,7,7],"right_children":[2,-1,4,6,8,10,12,14,-1,-1,-1,-1,-1,-1,-1],"split_conditions":[2.9920876E-1,-5.044163E-2,6.989964E3,5.674404E5,5E1,5.634562E5,5.634562E5,8.180072E3,5.1897507E-2,1.3428149E-2,-9.2669465E-2,-3.8236197E-2,5.2897573E-2,-2.6035253E-2,4.2800494E-2],"split_indices":[2,0,4,0,1,1,1,4,0,0,0,0,0,0,0],"split_type":[0,0,0,0,0,0,0,0,0,0,0,0,0,0,0],"sum_hessian":[7.692007E4,4.6136457E4,3.078361E4,6.9096553E3,2.3873955E4,5.260245E3,1.6494099E3,1.4935626E2,2.37246E4,4.924609E3,3.356362E2,9.8470955E1,1.550939E3,2.05098E1,1.2884647E2],"tree_param":{"num_deleted":"0","num_feature":"5","num_nodes":"15","size_leaf_vector":"1"}},{"base_weights":[-2.532084E-1,-5.0417732E-2,8.6752725E-1,3.1745565E-1,5.175236E-2,-1.2562215E-1,5.93674E-1,1.4850325E-2,-7.623991E-2,-9.637653E-2,3.956921E-2],"categories":[],"categories_nodes":[],"categories_segments":[],"categories_sizes":[],"default_left":[0,0,0,0,0,0,0,0,0,0,0],"id":60,"left_children":[1,-1,3,5,-1,7,9,-1,-1,-1,-1],"loss_changes":[6.2218086E4,0E0,2.715252E3,8.524571E2,0E0,1.5913954E3,2.1519905E3,0E0,0E0,0E0,0E0],"parents":[2147483647,0,0,2,2,3,3,5,5,6,6],"right_children":[2,-1,4,6,-1,8,10,-1,-1,-1,-1],"split_conditions":[2.9920876E-1,-5.0417732E-2,7.230294E3,8.2437E4,5.175236E-2,8.18464E4,8.18464E4,1.4850325E-2,-7.623991E-2,-9.637653E-2,3.956921E-2],"split_indices":[2,0,4,1,0,0,0,0,0,0,0],"split_type":[0,0,0,0,0,0,0,0,0,0,0],"sum_hessian":[7.348474E4,4.3906633E4,2.9578113E4,6.9220396E3,2.2656072E4,2.6543357E3,4.267704E3,2.0449038E3,6.0943176E2,2.9895056E2,3.9687534E3],"tree_param":{"num_deleted":"0","num_feature":"5","num_nodes":"11","size_leaf_vector":"1"}},{"base_weights":[-2.5226852E-1,-5.039491E-2,8.595163E-1,3.0716544E-1,5.1633295E-2,-4.0960375E-2,6.557141E-1,-1.9785335E-2,1.6381225E-2,2.2825522E-2,5.1140856E-2],"categories":[],"categories_nodes":[],"categories_segments":[],"categories_sizes":[],"default_left":[0,0,0,0,0,0,0,0,0,0,0],"id":61,"left_children":[1,-1,3,5,-1,7,9,-1,-1,-1,-1],"loss_changes":[5.898131E4,0E0,2.7054277E3,8.295588E2,0E0,4.48554E2,2.3496863E2,0E0,0E0,0E0,0E0],"parents":[2147483647,0,0,2,2,3,3,5,5,6,6],"right_children":[2,-1,4,6,-1,8,10,-1,-1,-1,-1],"split_conditions":[2.9920876E-1,-5.039491E-2,7.230294E3,1E0,5.1633295E-2,1.15136E5,4.3451334E5,-1.9785335E-2,1.6381225E-2,2.2825522E-2,5.1140856E-2],"split_indices":[2,0,4,3,0,1,0,0,0,0,0],"split_type":[0,0,0,0,0,0,0,0,0,0,0],"sum_hessian":[7.017633E4,4.1783727E4,2.8392604E4,6.7930635E3,2.159954E4,3.398039E3,3.3950247E3,1.7378748E3,1.6601644E3,2.2314375E3,1.1635872E3],"tree_param":{"num_deleted":"0","num_feature":"5","num_nodes":"11","size_leaf_vector":"1"}},{"base_weights":[-2.5117052E-1,-5.0373107E-2,8.508967E-1,2.9671344E-1,5.1518936E-2,1.06864184E-1,9.2766726E-1,1.22764325E-2,-9.198713E-2,-3.558351E-2,5.2295078E-2],"categories":[],"categories_nodes":[],"categories_segments":[],"categories_sizes":[],"default_left":[0,0,0,0,0,0,0,0,0,0,0],"id":62,"left_children":[1,-1,3,5,-1,7,9,-1,-1,-1,-1],"loss_changes":[5.5906195E4,0E0,2.7038223E3,7.9657385E2,0E0,1.3963782E3,3.1189648E2,0E0,0E0,0E0,0E0],"parents":[2147483647,0,0,2,2,3,3,5,5,6,6],"right_children":[2,-1,4,6,-1,8,10,-1,-1,-1,-1],"split_conditions":[2.9920876E-1,-5.0373107E-2,7.230294E3,5.674404E5,5.1518936E-2,5.634562E5,5.634562E5,1.22764325E-2,-9.198713E-2,-3.558351E-2,5.2295078E-2],"split_indices":[2,0,4,0,0,1,1,0,0,0,0],"split_type":[0,0,0,0,0,0,0,0,0,0,0],"sum_hessian":[6.7043914E4,3.9762676E4,2.728124E4,6.690565E3,2.0590676E4,5.162633E3,1.5279324E3,4.833967E3,3.286659E2,9.48766E1,1.4330557E3],"tree_param":{"num_deleted":"0","num_feature":"5","num_nodes":"11","size_leaf_vector":"1"}},{"base_weights":[-2.500593E-1,-5.0352257E-2,8.417894E-1,2.8573295E-1,5.1408924E-2,1.016877E-1,9.208401E-1,1.1707053E-2,-8.977031E-2,-3.436602E-2,5.2047092E-2],"categories":[],"categories_nodes":[],"categories_segments":[],"categories_sizes":[],"default_left":[0,0,0,0,0,0,0,0,0,0,0],"id":63,"left_children":[1,-1,3,5,-1,7,9,-1,-1,-1,-1],"loss_changes":[5.2978035E4,0E0,2.7089316E3,7.667893E2,0E0,1.293155E3,2.98052E2,0E0,0E0,0E0,0E0],"parents":[2147483647,0,0,2,2,3,3,5,5,6,6],"right_children":[2,-1,4,6,-1,8,10,-1,-1,-1,-1],"split_conditions":[2.9920876E-1,-5.0352257E-2,7.230294E3,5.674404E5,5.1408924E-2,5.634562E5,5.634562E5,1.1707053E-2,-8.977031E-2,-3.436602E-2,5.2047092E-2],"split_indices":[2,0,4,0,0,1,1,0,0,0,0],"split_type":[0,0,0,0,0,0,0,0,0,0,0],"sum_hessian":[6.406678E4,3.7838707E4,2.6228076E4,6.600765E3,1.962731E4,5.1373164E3,1.4634487E3,4.8167964E3,3.2052002E2,9.388303E1,1.3695657E3],"tree_param":{"num_deleted":"0","num_feature":"5","num_nodes":"11","size_leaf_vector":"1"}},{"base_weights":[-2.4892226E-1,-5.0332315E-2,8.32569E-1,2.75062E-1,1.0260588E0,-1.4182027E-1,5.536971E-1,5.7514673E-1,5.14081E-2,1.3112661E-2,-7.4756674E-2,-9.4092585E-2,3.7773233E-2,-2.3338998E-2,4.0570308E-2],"categories":[],"categories_nodes":[],"categories_segments":[],"categories_sizes":[],"default_left":[0,0,0,0,0,0,0,0,0,0,0,0,0,0,0],"id":64,"left_children":[1,-1,3,5,7,9,11,13,-1,-1,-1,-1,-1,-1,-1],"loss_changes":[5.0201363E4,0E0,2.711627E3,7.6167017E2,8.691406E-1,1.4450348E3,1.9439155E3,3.989899E1,0E0,0E0,0E0,0E0,0E0,0E0,0E0],"parents":[2147483647,0,0,2,2,3,3,4,4,5,5,6,6,7,7],"right_children":[2,-1,4,6,8,10,12,14,-1,-1,-1,-1,-1,-1,-1],"split_conditions":[2.9920876E-1,-5.0332315E-2,7.230294E3,8.2437E4,5E1,8.18464E4,8.18464E4,1E0,5.14081E-2,1.3112661E-2,-7.4756674E-2,-9.4092585E-2,3.7773233E-2,-2.3338998E-2,4.0570308E-2],"split_indices":[2,0,4,1,1,0,0,3,0,0,0,0,0,0,0],"split_type":[0,0,0,0,0,0,0,0,0,0,0,0,0,0,0],"sum_hessian":[6.122923E4,3.6007207E4,2.5222025E4,6.51432E3,1.8707705E4,2.6054998E3,3.90882E3,1.1700355E2,1.8590703E4,2.0128883E3,5.926115E2,2.8759222E2,3.6212278E3,1.500985E1,1.019937E2],"tree_param":{"num_deleted":"0","num_feature":"5","num_nodes":"15","size_leaf_vector":"1"}},{"base_weights":[-2.4790986E-1,-5.0313216E-2,8.2426786E-1,2.6581517E-1,1.024019E0,-6.242685E-2,6.1249E-1,5.614679E-1,5.1311295E-2,-4.9261287E-2,3.5918397E-3,2.0888139E-2,5.067235E-2,-2.3766309E-2,3.9803334E-2],"categories":[],"categories_nodes":[],"categories_segments":[],"categories_sizes":[],"default_left":[0,0,0,0,0,0,0,0,0,0,0,0,0,0,0],"id":65,"left_children":[1,-1,3,5,7,9,11,13,-1,-1,-1,-1,-1,-1,-1],"loss_changes":[4.7585723E4,0E0,2.693957E3,7.3320374E2,1.6347656E0,4.1459662E2,2.307384E2,3.8562496E1,0E0,0E0,0E0,0E0,0E0,0E0,0E0],"parents":[2147483647,0,0,2,2,3,3,4,4,5,5,6,6,7,7],"right_children":[2,-1,4,6,8,10,12,14,-1,-1,-1,-1,-1,-1,-1],"split_conditions":[2.9920876E-1,-5.0313216E-2,7.230294E3,1E0,5E1,1.977E3,4.3451334E5,8.180072E3,5.1311295E-2,-4.9261287E-2,3.5918397E-3,2.0888139E-2,5.067235E-2,-2.3766309E-2,3.9803334E-2],"split_indices":[2,0,4,3,1,1,0,4,0,0,0,0,0,0,0],"split_type":[0,0,0,0,0,0,0,0,0,0,0,0,0,0,0],"sum_hessian":[5.849307E4,3.426378E4,2.422929E4,6.399087E3,1.7830203E4,3.285836E3,3.1132507E3,1.1361425E2,1.7716588E4,4.1000778E2,2.8758281E3,2.1245493E3,9.8870154E2,1.4191408E1,9.942284E1],"tree_param":{"num_deleted":"0","num_feature":"5","num_nodes":"15","size_leaf_vector":"1"}},{"base_weights":[-2.4672206E-1,-5.0294925E-2,8.151893E-1,2.5631076E-1,1.0220543E0,8.1462294E-2,9.0731716E-1,5.4821247E-1,5.121818E-2,1.0538776E-2,-8.837519E-2,-3.1887446E-2,5.1546186E-2,-2.344201E-2,3.9756365E-2],"categories":[],"categories_nodes":[],"categories_segments":[],"categories_sizes":[],"default_left":[0,0,0,0,0,0,0,0,0,0,0,0,0,0,0],"id":66,"left_children":[1,-1,3,5,7,9,11,13,-1,-1,-1,-1,-1,-1,-1],"loss_changes":[4.509721E4,0E0,2.685621E3,7.14032E2,2.3261719E0,1.1955038E3,2.661786E2,3.867876E1,0E0,0E0,0E0,0E0,0E0,0E0,0E0],"parents":[2147483647,0,0,2,2,3,3,4,4,5,5,6,6,7,7],"right_children":[2,-1,4,6,8,10,12,14,-1,-1,-1,-1,-1,-1,-1],"split_conditions":[2.9920876E-1,-5.0294925E-2,7.230294E3,5.674404E5,5E1,5.634562E5,5.634562E5,1E0,5.121818E-2,1.0538776E-2,-8.837519E-2,-3.1887446E-2,5.1546186E-2,-2.344201E-2,3.9756365E-2],"split_indices":[2,0,4,0,1,1,1,3,0,0,0,0,0,0,0],"split_type":[0,0,0,0,0,0,0,0,0,0,0,0,0,0,0],"sum_hessian":[5.590808E4,3.2604285E4,2.3303795E4,6.3111035E3,1.6992691E4,4.9942866E3,1.316817E3,1.102582E2,1.6882432E4,4.682776E3,3.1151038E2,8.992479E1,1.2268923E3,1.4949361E1,9.530884E1],"tree_param":{"num_deleted":"0","num_feature":"5","num_nodes":"15","size_leaf_vector":"1"}},{"base_weights":[-2.4550653E-1,-5.0277382E-2,8.056712E-1,2.4653819E-1,1.0201461E0,-1.4979716E-1,5.235549E-1,5.345361E-1,5.1128484E-2,1.1893718E-2,-7.3464416E-2,-9.214376E-2,3.6298614E-2,-2.379815E-2,3.8980108E-2],"categories":[],"categories_nodes":[],"categories_segments":[],"categories_sizes":[],"default_left":[0,0,0,0,0,0,0,0,0,0,0,0,0,0,0],"id":67,"left_children":[1,-1,3,5,7,9,11,13,-1,-1,-1,-1,-1,-1,-1],"loss_changes":[4.2729457E4,0E0,2.6810957E3,6.8901776E2,3.0898438E0,1.3284049E3,1.7812085E3,3.733664E1,0E0,0E0,0E0,0E0,0E0,0E0,0E0],"parents":[2147483647,0,0,2,2,3,3,4,4,5,5,6,6,7,7],"right_children":[2,-1,4,6,8,10,12,14,-1,-1,-1,-1,-1,-1,-1],"split_conditions":[2.9920876E-1,-5.0277382E-2,7.230294E3,8.2437E4,5E1,8.18464E4,8.18464E4,8.180072E3,5.1128484E-2,1.1893718E-2,-7.3464416E-2,-9.214376E-2,3.6298614E-2,-2.379815E-2,3.8980108E-2],"split_indices":[2,0,4,1,1,0,0,4,0,0,0,0,0,0,0],"split_type":[0,0,0,0,0,0,0,0,0,0,0,0,0,0,0],"sum_hessian":[5.3451336E4,3.1024709E4,2.2426627E4,6.232956E3,1.6193672E4,2.5596438E3,3.6733123E3,1.0716383E2,1.6086508E4,1.9849612E3,5.7468256E2,2.7792035E2,3.3953918E3,1.417589E1,9.2987946E1],"tree_param":{"num_deleted":"0","num_feature":"5","num_nodes":"15","size_leaf_vector":"1"}},{"base_weights":[-2.4442853E-1,-5.0260562E-2,7.970826E-1,2.3801076E-1,1.0183024E0,7.004098E-2,8.995644E-1,5.2128357E-1,5.104195E-2,9.754303E-3,-8.682537E-2,-2.9253865E-2,5.1152766E-2,-2.3501318E-2,3.8936924E-2],"categories":[],"categories_nodes":[],"categories_segments":[],"categories_sizes":[],"default_left":[0,0,0,0,0,0,0,0,0,0,0,0,0,0,0],"id":68,"left_children":[1,-1,3,5,7,9,11,13,-1,-1,-1,-1,-1,-1,-1],"loss_changes":[4.0498914E4,0E0,2.6582803E3,6.7675073E2,3.78125E0,1.1090013E3,2.3786194E2,3.742903E1,0E0,0E0,0E0,0E0,0E0,0E0,0E0],"parents":[2147483647,0,0,2,2,3,3,4,4,5,5,6,6,7,7],"right_children":[2,-1,4,6,8,10,12,14,-1,-1,-1,-1,-1,-1,-1],"split_conditions":[2.9920876E-1,-5.0260562E-2,7.230294E3,5.674404E5,5E1,5.634562E5,5.634562E5,1E0,5.104195E-2,9.754303E-3,-8.682537E-2,-2.9253865E-2,5.1152766E-2,-2.3501318E-2,3.8936924E-2],"split_indices":[2,0,4,0,1,1,1,3,0,0,0,0,0,0,0],"split_type":[0,0,0,0,0,0,0,0,0,0,0,0,0,0,0],"sum_hessian":[5.1080043E4,2.9521256E4,2.1558787E4,6.1273477E3,1.5431438E4,4.905881E3,1.2214668E3,1.0409467E2,1.5327344E4,4.6033926E3,3.0248828E2,8.638359E1,1.1350833E3,1.4903617E1,8.9191055E1],"tree_param":{"num_deleted":"0","num_feature":"5","num_nodes":"15","size_leaf_vector":"1"}},{"base_weights":[-2.4315567E-1,-5.02444E-2,7.87334E-1,2.2880588E-1,1.016504E0,6.647999E-2,8.9283156E-1,7.3501146E-1,5.112476E-2,9.294803E-3,-8.500031E-2,-2.8231679E-2,5.0927855E-2,-3.0677292E-2,4.3448623E-2],"categories":[],"categories_nodes":[],"categories_segments":[],"categories_sizes":[],"default_left":[0,0,0,0,0,0,0,0,0,0,0,0,0,0,0],"id":69,"left_children":[1,-1,3,5,7,9,11,13,-1,-1,-1,-1,-1,-1,-1],"loss_changes":[3.8369316E4,0E0,2.6493096E3,6.485472E2,4.7626953E0,1.0307184E3,2.2804297E2,7.747002E1,0E0,0E0,0E0,0E0,0E0,0E0,0E0],"parents":[2147483647,0,0,2,2,3,3,4,4,5,5,6,6,7,7],"right_children":[2,-1,4,6,8,10,12,14,-1,-1,-1,-1,-1,-1,-1],"split_conditions":[2.9920876E-1,-5.02444E-2,7.230294E3,5.674404E5,8.180072E3,5.634562E5,5.634562E5,2.1825E4,5.112476E-2,9.294803E-3,-8.500031E-2,-2.8231679E-2,5.0927855E-2,-3.0677292E-2,4.3448623E-2],"split_indices":[2,0,4,0,4,1,1,1,0,0,0,0,0,0,0],"split_type":[0,0,0,0,0,0,0,0,0,0,0,0,0,0,0],"sum_hessian":[4.884927E4,2.80903E4,2.0758969E4,6.054606E3,1.4704362E4,4.8845693E3,1.1700367E3,3.624926E2,1.434187E4,4.5904995E3,2.9406998E2,8.559915E1,1.0844376E3,2.4529951E1,3.3796268E2],"tree_param":{"num_deleted":"0","num_feature":"5","num_nodes":"15","size_leaf_vector":"1"}},{"base_weights":[-2.4184446E-1,-5.022886E-2,7.774444E-1,2.1987757E-1,1.0147611E0,-1.6088226E-1,5.0099605E-1,7.239235E-1,5.1051646E-2,1.0410699E-2,-7.199177E-2,-9.004293E-2,3.5130095E-2,-2.9240994E-2,4.3079816E-2],"categories":[],"categories_nodes":[],"categories_segments":[],"categories_sizes":[],"default_left":[0,0,0,0,0,0,0,0,0,0,0,0,0,0,0],"id":70,"left_children":[1,-1,3,5,7,9,11,13,-1,-1,-1,-1,-1,-1,-1],"loss_changes":[3.6349914E4,0E0,2.638294E3,6.451133E2,5.7714844E0,1.2153715E3,1.6204038E3,7.460951E1,0E0,0E0,0E0,0E0,0E0,0E0,0E0],"parents":[2147483647,0,0,2,2,3,3,4,4,5,5,6,6,7,7],"right_children":[2,-1,4,6,8,10,12,14,-1,-1,-1,-1,-1,-1,-1],"split_conditions":[2.9920876E-1,-5.022886E-2,7.230294E3,8.2437E4,8.180072E3,8.18464E4,8.18464E4,2.1825E4,5.1051646E-2,1.0410699E-2,-7.199177E-2,-9.004293E-2,3.5130095E-2,-2.9240994E-2,4.3079816E-2],"split_indices":[2,0,4,1,4,0,0,1,0,0,0,0,0,0,0],"split_type":[0,0,0,0,0,0,0,0,0,0,0,0,0,0,0],"sum_hessian":[4.6724082E4,2.6728385E4,1.9995697E4,5.984738E3,1.4010959E4,2.5370583E3,3.4476792E3,3.4945795E2,1.3661502E4,1.9755718E3,5.614866E2,2.66065E2,3.1816143E3,2.5168163E1,3.2428976E2],"tree_param":{"num_deleted":"0","num_feature":"5","num_nodes":"15","size_leaf_vector":"1"}},{"base_weights":[-2.4069004E-1,-5.02139E-2,7.685408E-1,2.1207038E-1,1.0130616E0,-9.2760764E-2,5.5564934E-1,7.126948E-1,5.0981402E-2,-4.8563223E-2,1.8561346E-3,1.8599562E-2,5.0600242E-2,-2.788283E-2,4.2703807E-2],"categories":[],"categories_nodes":[],"categories_segments":[],"categories_sizes":[],"default_left":[0,0,0,0,0,0,0,0,0,0,0,0,0,0,0],"id":71,"left_children":[1,-1,3,5,7,9,11,13,-1,-1,-1,-1,-1,-1,-1],"loss_changes":[3.44481E4,0E0,2.610255E3,6.212617E2,6.798828E0,3.6265942E2,2.208263E2,7.185396E1,0E0,0E0,0E0,0E0,0E0,0E0,0E0],"parents":[2147483647,0,0,2,2,3,3,4,4,5,5,6,6,7,7],"right_children":[2,-1,4,6,8,10,12,14,-1,-1,-1,-1,-1,-1,-1],"split_conditions":[2.9920876E-1,-5.02139E-2,7.230294E3,1E0,8.180072E3,1.977E3,4.468652E5,2.1825E4,5.0981402E-2,-4.8563223E-2,1.8561346E-3,1.8599562E-2,5.0600242E-2,-2.788283E-2,4.2703807E-2],"split_indices":[2,0,4,3,4,1,0,1,0,0,0,0,0,0,0],"split_type":[0,0,0,0,0,0,0,0,0,0,0,0,0,0,0],"sum_hessian":[4.466929E4,2.5432209E4,1.923708E4,5.8873496E3,1.334973E4,3.1176748E3,2.7696748E3,3.3703918E2,1.301269E4,3.9400906E2,2.7236658E3,2.0021162E3,7.675587E2,2.5788826E1,3.1125037E2],"tree_param":{"num_deleted":"0","num_feature":"5","num_nodes":"15","size_leaf_vector":"1"}},{"base_weights":[-2.3931682E-1,-5.0199497E-2,7.587972E-1,2.0421183E-1,1.0114014E0,5.0965782E-2,8.801647E-1,7.0132977E-1,5.091384E-2,8.378019E-3,-8.3922334E-2,-2.596587E-2,5.0472796E-2,-2.6597766E-2,4.2320423E-2],"categories":[],"categories_nodes":[],"categories_segments":[],"categories_sizes":[],"default_left":[0,0,0,0,0,0,0,0,0,0,0,0,0,0,0],"id":72,"left_children":[1,-1,3,5,7,9,11,13,-1,-1,-1,-1,-1,-1,-1],"loss_changes":[3.2639041E4,0E0,2.589376E3,5.9856287E2,7.838867E0,9.5936017E2,2.0400482E2,6.919743E1,0E0,0E0,0E0,0E0,0E0,0E0,0E0],"parents":[2147483647,0,0,2,2,3,3,4,4,5,5,6,6,7,7],"right_children":[2,-1,4,6,8,10,12,14,-1,-1,-1,-1,-1,-1,-1],"split_conditions":[2.9920876E-1,-5.0199497E-2,7.230294E3,5.674404E5,8.180072E3,5.634562E5,5.634562E5,2.1825E4,5.091384E-2,8.378019E-3,-8.3922334E-2,-2.596587E-2,5.0472796E-2,-2.6597766E-2,4.2320423E-2],"split_indices":[2,0,4,0,4,1,1,1,0,0,0,0,0,0,0],"split_type":[0,0,0,0,0,0,0,0,0,0,0,0,0,0,0],"sum_hessian":[4.2732727E4,2.4198637E4,1.8534088E4,5.8147925E3,1.2719296E4,4.7593276E3,1.0554647E3,3.2520932E2,1.2394086E4,4.474126E3,2.8520157E2,8.216519E1,9.7329956E2,2.6392004E1,2.9881732E2],"tree_param":{"num_deleted":"0","num_feature":"5","num_nodes":"15","size_leaf_vector":"1"}},{"base_weights":[-2.3790261E-1,-5.018559E-2,7.485473E-1,1.9608903E-1,1.0097756E0,-1.64598E-1,4.7353128E-1,6.898349E-1,5.084877E-2,9.484462E-3,-7.068196E-2,-8.8383585E-2,3.3738177E-2,-2.5381243E-2,4.192954E-2],"categories":[],"categories_nodes":[],"categories_segments":[],"categories_sizes":[],"default_left":[0,0,0,0,0,0,0,0,0,0,0,0,0,0,0],"id":73,"left_children":[1,-1,3,5,7,9,11,13,-1,-1,-1,-1,-1,-1,-1],"loss_changes":[3.0916973E4,0E0,2.5721094E3,5.7977466E2,8.892578E0,1.1210682E3,1.4877112E3,6.663458E1,0E0,0E0,0E0,0E0,0E0,0E0,0E0],"parents":[2147483647,0,0,2,2,3,3,4,4,5,5,6,6,7,7],"right_children":[2,-1,4,6,8,10,12,14,-1,-1,-1,-1,-1,-1,-1],"split_conditions":[2.9920876E-1,-5.018559E-2,7.230294E3,8.2437E4,8.180072E3,8.18464E4,8.18464E4,2.1825E4,5.084877E-2,9.484462E-3,-7.068196E-2,-8.8383585E-2,3.3738177E-2,-2.5381243E-2,4.192954E-2],"split_indices":[2,0,4,1,4,0,0,1,0,0,0,0,0,0,0],"split_type":[0,0,0,0,0,0,0,0,0,0,0,0,0,0,0],"sum_hessian":[4.0894582E4,2.3024676E4,1.7869906E4,5.7515825E3,1.2118324E4,2.4954578E3,3.2561248E3,3.1394318E2,1.1804381E4,1.9508291E3,5.4462866E2,2.566048E2,2.99952E3,2.6977757E1,2.8696542E2],"tree_param":{"num_deleted":"0","num_feature":"5","num_nodes":"15","size_leaf_vector":"1"}},{"base_weights":[-2.3665784E-1,-5.017217E-2,7.392987E-1,1.8892974E-1,1.0081801E0,4.218605E-2,8.73153E-1,6.782116E-1,5.0785996E-2,7.7520492E-3,-8.2663536E-2,-2.3549357E-2,5.0109114E-2,-2.4229025E-2,4.15309E-2],"categories":[],"categories_nodes":[],"categories_segments":[],"categories_sizes":[],"default_left":[0,0,0,0,0,0,0,0,0,0,0,0,0,0,0],"id":74,"left_children":[1,-1,3,5,7,9,11,13,-1,-1,-1,-1,-1,-1,-1],"loss_changes":[2.9295305E4,0E0,2.5398057E3,5.648774E2,9.958984E0,8.9494574E2,1.824331E2,6.416011E1,0E0,0E0,0E0,0E0,0E0,0E0,0E0],"parents":[2147483647,0,0,2,2,3,3,4,4,5,5,6,6,7,7],"right_children":[2,-1,4,6,8,10,12,14,-1,-1,-1,-1,-1,-1,-1],"split_conditions":[2.9920876E-1,-5.017217E-2,7.230294E3,5.674404E5,8.180072E3,5.634562E5,5.634562E5,2.1825E4,5.0785996E-2,7.7520492E-3,-8.2663536E-2,-2.3549357E-2,5.0109114E-2,-2.4229025E-2,4.15309E-2],"split_indices":[2,0,4,0,4,1,1,1,0,0,0,0,0,0,0],"split_type":[0,0,0,0,0,0,0,0,0,0,0,0,0,0,0],"sum_hessian":[3.911493E4,2.1907465E4,1.7207465E4,5.6620483E3,1.1545417E4,4.681295E3,9.807535E2,3.032113E2,1.1242206E4,4.4046826E3,2.7661212E2,7.902453E1,9.0172894E2,2.7546186E1,2.756651E2],"tree_param":{"num_deleted":"0","num_feature":"5","num_nodes":"15","size_leaf_vector":"1"}},{"base_weights":[-2.3516853E-1,-5.0159175E-2,7.2879714E-1,1.8131547E-1,1.0066105E0,-1.0594603E-1,5.182014E-1,6.664667E-1,5.0725352E-2,-4.7831874E-2,9.77152E-4,1.7783463E-2,5.2393705E-2,-2.3136998E-2,4.1124392E-2],"categories":[],"categories_nodes":[],"categories_segments":[],"categories_sizes":[],"default_left":[0,0,0,0,0,0,0,0,0,0,0,0,0,0,0],"id":75,"left_children":[1,-1,3,5,7,9,11,13,-1,-1,-1,-1,-1,-1,-1],"loss_changes":[2.7746855E4,0E0,2.5188184E3,5.4658386E2,1.1037109E1,3.29162E2,2.1090594E2,6.1769302E1,0E0,0E0,0E0,0E0,0E0,0E0,0E0],"parents":[2147483647,0,0,2,2,3,3,4,4,5,5,6,6,7,7],"right_children":[2,-1,4,6,8,10,12,14,-1,-1,-1,-1,-1,-1,-1],"split_conditions":[2.9920876E-1,-5.0159175E-2,7.230294E3,1E0,8.180072E3,1.977E3,5.3813194E5,2.1825E4,5.0725352E-2,-4.7831874E-2,9.77152E-4,1.7783463E-2,5.2393705E-2,-2.3136998E-2,4.1124392E-2],"split_indices":[2,0,4,3,4,1,0,1,0,0,0,0,0,0,0],"split_type":[0,0,0,0,0,0,0,0,0,0,0,0,0,0,0],"sum_hessian":[3.7446863E4,2.084429E4,1.6602576E4,5.6032144E3,1.0999362E4,3.0218953E3,2.581319E3,2.9298947E2,1.0706373E4,3.808185E2,2.6410767E3,2.0016248E3,5.7969415E2,2.8097551E1,2.6489194E2],"tree_param":{"num_deleted":"0","num_feature":"5","num_nodes":"15","size_leaf_vector":"1"}},{"base_weights":[-2.3363572E-1,-5.014659E-2,7.1856195E-1,1.7444599E-1,1.0050633E0,3.5588894E-2,8.604385E-1,6.5460867E-1,5.066669E-2,7.2139553E-3,-8.132195E-2,-2.2970913E-2,4.9808826E-2,-2.2101566E-2,4.0709984E-2],"categories":[],"categories_nodes":[],"categories_segments":[],"categories_sizes":[],"default_left":[0,0,0,0,0,0,0,0,0,0,0,0,0,0,0],"id":76,"left_children":[1,-1,3,5,7,9,11,13,-1,-1,-1,-1,-1,-1,-1],"loss_changes":[2.6284977E4,0E0,2.4909482E3,5.241607E2,1.2126953E1,8.345258E2,1.7586884E2,5.94582E1,0E0,0E0,0E0,0E0,0E0,0E0,0E0],"parents":[2147483647,0,0,2,2,3,3,4,4,5,5,6,6,7,7],"right_children":[2,-1,4,6,8,10,12,14,-1,-1,-1,-1,-1,-1,-1],"split_conditions":[2.9920876E-1,-5.014659E-2,7.230294E3,5.674404E5,8.180072E3,5.634562E5,5.634562E5,2.1825E4,5.066669E-2,7.2139553E-3,-8.132195E-2,-2.2970913E-2,4.9808826E-2,-2.2101566E-2,4.0709984E-2],"split_indices":[2,0,4,0,4,1,1,1,0,0,0,0,0,0,0],"split_type":[0,0,0,0,0,0,0,0,0,0,0,0,0,0,0],"sum_hessian":[3.5851152E4,1.9832559E4,1.6018596E4,5.5395703E3,1.0479025E4,4.62621E3,9.133602E2,2.8325546E2,1.01957705E4,4.357925E3,2.6828522E2,7.840264E1,8.349576E2,2.8632006E1,2.5462346E2],"tree_param":{"num_deleted":"0","num_feature":"5","num_nodes":"15","size_leaf_vector":"1"}},{"base_weights":[-2.3206119E-1,-5.0134387E-2,7.0779616E-1,1.673189E-1,1.0035336E0,-1.7358859E-1,4.4452882E-1,6.426424E-1,5.0609827E-2,8.304158E-3,-6.948019E-2,-8.682927E-2,3.2338362E-2,-9.235038E-3,4.3000307E-2],"categories":[],"categories_nodes":[],"categories_segments":[],"categories_sizes":[],"default_left":[0,0,0,0,0,0,0,0,0,0,0,0,0,0,0],"id":77,"left_children":[1,-1,3,5,7,9,11,13,-1,-1,-1,-1,-1,-1,-1],"loss_changes":[2.4892967E4,0E0,2.4663843E3,5.222456E2,1.32265625E1,1.0294532E3,1.3547847E3,5.772856E1,0E0,0E0,0E0,0E0,0E0,0E0,0E0],"parents":[2147483647,0,0,2,2,3,3,4,4,5,5,6,6,7,7],"right_children":[2,-1,4,6,8,10,12,14,-1,-1,-1,-1,-1,-1,-1],"split_conditions":[2.9920876E-1,-5.0134387E-2,7.230294E3,8.2437E4,8.180072E3,8.18464E4,8.18464E4,1E0,5.0609827E-2,8.304158E-3,-6.948019E-2,-8.682927E-2,3.2338362E-2,-9.235038E-3,4.3000307E-2],"split_indices":[2,0,4,1,4,0,0,3,0,0,0,0,0,0,0],"split_type":[0,0,0,0,0,0,0,0,0,0,0,0,0,0,0],"sum_hessian":[3.4337574E4,1.8869795E4,1.5467779E4,5.484654E3,9.983126E3,2.454153E3,3.0305007E3,2.7398456E2,9.709142E3,1.9252178E3,5.289351E2,2.4539745E2,2.7851033E3,5.2688713E1,2.2129584E2],"tree_param":{"num_deleted":"0","num_feature":"5","num_nodes":"15","size_leaf_vector":"1"}},{"base_weights":[-2.3067221E-1,-5.012251E-2,6.9810575E-1,1.6100064E-1,1.0019964E0,2.8264215E-2,8.537016E-1,6.3040113E-1,5.0554615E-2,6.676357E-3,-8.018672E-2,-2.0658193E-2,4.945099E-2,-2.2415752E-2,3.9933935E-2],"categories":[],"categories_nodes":[],"categories_segments":[],"categories_sizes":[],"default_left":[0,0,0,0,0,0,0,0,0,0,0,0,0,0,0],"id":78,"left_children":[1,-1,3,5,7,9,11,13,-1,-1,-1,-1,-1,-1,-1],"loss_changes":[2.358307E4,0E0,2.4285913E3,4.9344733E2,1.4428711E1,7.8072906E2,1.572569E2,5.8054573E1,0E0,0E0,0E0,0E0,0E0,0E0,0E0],"parents":[2147483647,0,0,2,2,3,3,4,4,5,5,6,6,7,7],"right_children":[2,-1,4,6,8,10,12,14,-1,-1,-1,-1,-1,-1,-1],"split_conditions":[2.9920876E-1,-5.012251E-2,7.230294E3,5.674404E5,8.180072E3,5.634562E5,5.634562E5,2.1825E4,5.0554615E-2,6.676357E-3,-8.018672E-2,-2.0658193E-2,4.945099E-2,-2.2415752E-2,3.9933935E-2],"split_indices":[2,0,4,0,4,1,1,1,0,0,0,0,0,0,0],"split_type":[0,0,0,0,0,0,0,0,0,0,0,0,0,0,0],"sum_hessian":[3.2868246E4,1.7953654E4,1.491459E4,5.403568E3,9.511021E3,4.553793E3,8.497747E2,2.6557956E2,9.245442E3,4.2936895E3,2.6010388E2,7.546963E1,7.7430505E2,2.8460855E1,2.3711868E2],"tree_param":{"num_deleted":"0","num_feature":"5","num_nodes":"15","size_leaf_vector":"1"}},{"base_weights":[-2.2901028E-1,-5.0110962E-2,6.871021E-1,1.5434125E-1,1.0004901E0,-1.7249426E-1,4.2872182E-1,6.1819994E-1,5.050092E-2,7.5790235E-3,-6.790789E-2,-8.512334E-2,3.135983E-2,-1.0228445E-2,4.2357218E-2],"categories":[],"categories_nodes":[],"categories_segments":[],"categories_sizes":[],"default_left":[0,0,0,0,0,0,0,0,0,0,0,0,0,0,0],"id":79,"left_children":[1,-1,3,5,7,9,11,13,-1,-1,-1,-1,-1,-1,-1],"loss_changes":[2.2331988E4,0E0,2.4008623E3,4.837273E2,1.5551758E1,9.512658E2,1.2501981E3,5.7073837E1,0E0,0E0,0E0,0E0,0E0,0E0,0E0],"parents":[2147483647,0,0,2,2,3,3,4,4,5,5,6,6,7,7],"right_children":[2,-1,4,6,8,10,12,14,-1,-1,-1,-1,-1,-1,-1],"split_conditions":[2.9920876E-1,-5.0110962E-2,7.230294E3,8.2437E4,8.180072E3,8.18464E4,8.18464E4,1E0,5.050092E-2,7.5790235E-3,-6.790789E-2,-8.512334E-2,3.135983E-2,-1.0228445E-2,4.2357218E-2],"split_indices":[2,0,4,1,4,0,0,3,0,0,0,0,0,0,0],"split_type":[0,0,0,0,0,0,0,0,0,0,0,0,0,0,0],"sum_hessian":[3.149513E4,1.7081883E4,1.4413248E4,5.3524326E3,9.060815E3,2.436947E3,2.9154856E3,2.5713422E2,8.803682E3,1.9208033E3,5.161436E2,2.3655367E2,2.678932E3,5.156831E1,2.055659E2],"tree_param":{"num_deleted":"0","num_feature":"5","num_nodes":"15","size_leaf_vector":"1"}},{"base_weights":[-2.2754274E-1,-5.009969E-2,6.7718387E-1,1.4840037E-1,9.989673E-1,-1.2063623E-1,4.7719342E-1,6.057777E-1,5.0448585E-2,-4.6945564E-2,-0E0,1.6125647E-2,5.28042E-2,-2.2665462E-2,3.9137058E-2],"categories":[],"categories_nodes":[],"categories_segments":[],"categories_sizes":[],"default_left":[0,0,0,0,0,0,0,0,0,0,0,0,0,0,0],"id":80,"left_children":[1,-1,3,5,7,9,11,13,-1,-1,-1,-1,-1,-1,-1],"loss_changes":[2.1154803E4,0E0,2.361125E3,4.706626E2,1.677246E1,2.9213388E2,2.0222083E2,5.6542458E1,0E0,0E0,0E0,0E0,0E0,0E0,0E0],"parents":[2147483647,0,0,2,2,3,3,4,4,5,5,6,6,7,7],"right_children":[2,-1,4,6,8,10,12,14,-1,-1,-1,-1,-1,-1,-1],"split_conditions":[2.9920876E-1,-5.009969E-2,7.230294E3,1E0,8.180072E3,1.977E3,5.3813194E5,2.1825E4,5.0448585E-2,-4.6945564E-2,-0E0,1.6125647E-2,5.28042E-2,-2.2665462E-2,3.9137058E-2],"split_indices":[2,0,4,3,4,1,0,1,0,0,0,0,0,0,0],"split_type":[0,0,0,0,0,0,0,0,0,0,0,0,0,0,0],"sum_hessian":[3.0160557E4,1.625236E4,1.3908196E4,5.275869E3,8.632327E3,2.8984702E3,2.377399E3,2.4950229E2,8.382825E3,3.6448187E2,2.5339883E3,1.9013494E3,4.7604953E2,2.8322153E1,2.2118013E2],"tree_param":{"num_deleted":"0","num_feature":"5","num_nodes":"15","size_leaf_vector":"1"}},{"base_weights":[-2.2579664E-1,-5.008867E-2,6.6640717E-1,1.4265399E-1,9.9746877E-1,1.8374836E-2,8.410124E-1,5.933734E-1,5.0397467E-2,6.0586743E-3,-7.9322144E-2,-1.8723052E-2,4.9006592E-2,-1.1133984E-2,4.1695647E-2],"categories":[],"categories_nodes":[],"categories_segments":[],"categories_sizes":[],"default_left":[0,0,0,0,0,0,0,0,0,0,0,0,0,0,0],"id":81,"left_children":[1,-1,3,5,7,9,11,13,-1,-1,-1,-1,-1,-1,-1],"loss_changes":[2.00359E4,0E0,2.3260405E3,4.499325E2,1.7914062E1,